{"learner":{"attributes":{"best_iteration":"406","best_ntree_limit":"407","best_score":"0.434443"},"feature_names":[],"feature_types":[],"gradient_booster":{"model":{"gbtree_model_param":{"num_trees":"427","size_leaf_vector":"0"},"tree_info":[0,0,0,0,0,0,0,0,0,0,0,0,0,0,0,0,0,0,0,0,0,0,0,0,0,0,0,0,0,0,0,0,0,0,0,0,0,0,0,0,0,0,0,0,0,0,0,0,0,0,0,0,0,0,0,0,0,0,0,0,0,0,0,0,0,0,0,0,0,0,0,0,0,0,0,0,0,0,0,0,0,0,0,0,0,0,0,0,0,0,0,0,0,0,0,0,0,0,0,0,0,0,0,0,0,0,0,0,0,0,0,0,0,0,0,0,0,0,0,0,0,0,0,0,0,0,0,0,0,0,0,0,0,0,0,0,0,0,0,0,0,0,0,0,0,0,0,0,0,0,0,0,0,0,0,0,0,0,0,0,0,0,0,0,0,0,0,0,0,0,0,0,0,0,0,0,0,0,0,0,0,0,0,0,0,0,0,0,0,0,0,0,0,0,0,0,0,0,0,0,0,0,0,0,0,0,0,0,0,0,0,0,0,0,0,0,0,0,0,0,0,0,0,0,0,0,0,0,0,0,0,0,0,0,0,0,0,0,0,0,0,0,0,0,0,0,0,0,0,0,0,0,0,0,0,0,0,0,0,0,0,0,0,0,0,0,0,0,0,0,0,0,0,0,0,0,0,0,0,0,0,0,0,0,0,0,0,0,0,0,0,0,0,0,0,0,0,0,0,0,0,0,0,0,0,0,0,0,0,0,0,0,0,0,0,0,0,0,0,0,0,0,0,0,0,0,0,0,0,0,0,0,0,0,0,0,0,0,0,0,0,0,0,0,0,0,0,0,0,0,0,0,0,0,0,0,0,0,0,0,0,0,0,0,0,0,0,0,0,0,0,0,0,0,0,0,0,0,0,0,0,0,0,0,0,0,0,0,0,0,0,0,0,0,0,0,0,0,0,0,0,0,0,0,0,0,0,0,0,0,0,0,0,0,0,0,0,0,0,0,0,0,0,0,0,0,0],"trees":[{"base_weights":[9.840753E-3,-4.2554402E-1,1.311755E0,-1.1685354E0,-1.0259341E-1,-2.9366454E-1,1.8669168E0,-1.2556577E0,-9.0180546E-1,-8.677817E-1,4.293155E-2,-8.069417E-1,4.547991E-1,1.6685567E0,2.9678874E0,-1.2948593E0,-1.0983069E0,-1.0326645E0,-6.7623866E-1,-1.1106327E0,-7.823935E-1,-3.988239E-1,2.0797406E-1,-1.165805E0,-5.0448024E-1,5.640211E-1,-6.3287747E-1,1.7132488E0,4.454597E-2,3.0926461E0,9.673406E-1,-7.532489E-1,-4.6199152E-1,-1.0182607E0,-6.1654747E-1,-4.6024144E-1,-5.3233083E-2,-3.7279487E-2,5.02955E-1,-1.1851772E0,-3.768661E-1,-5.374422E-1,3.1380948E-1,1.8923572E-1,7.0589155E-1,1.2055113E0,1.8373337E0,-3.6356083E-1,3.7882707E-1,-3.958022E-2,1.7754469E0,-6.3403094E-1,-1.0020536E0,-4.9115497E-1,-1.4509748E-1,-3.8603407E-1,-1.0392959E0,-5.4930913E-1,-1.0932674E0,-5.3612006E-1,-2.8042296E-1,4.842749E-1,-1.7515425E-1,1.8536717E-3,-9.5206475E-1,5.63359E-1,-2.8616014E-1,1.0972276E-1,5.617475E-1,8.0309606E-1,4.7013447E-1,1.0457647E0,1.7295681E0,1.7263697E0,2.0674875E0,1.3707395E-1,-5.4483104E-1,7.357026E-1,-4.4189784E-1,-6.894886E-1,5.755488E-1],"categories":[],"categories_nodes":[],"categories_segments":[],"categories_sizes":[],"default_left":[true,true,true,true,true,true,true,true,true,true,true,true,true,true,true,false,false,false,true,false,true,true,true,true,true,true,false,true,true,false,true,true,true,true,true,true,true,true,true,false,false,false,false,true,true,true,true,true,true,true,false,false,false,false,false,false,false,false,false,false,false,false,false,false,false,false,false,false,false,false,false,false,false,false,false,false,false,false,false,false,false],"id":0,"left_children":[1,3,5,7,9,11,13,15,17,19,21,23,25,27,29,-1,-1,-1,31,-1,33,35,37,39,41,43,-1,45,47,-1,49,51,53,55,57,59,61,63,65,-1,-1,-1,-1,67,69,71,73,75,77,79,-1,-1,-1,-1,-1,-1,-1,-1,-1,-1,-1,-1,-1,-1,-1,-1,-1,-1,-1,-1,-1,-1,-1,-1,-1,-1,-1,-1,-1,-1,-1],"loss_changes":[1.3619904E3,4.3194626E2,5.372388E2,1.1542908E1,1.3992043E2,6.0140125E1,9.279321E1,1.0982666E0,3.3705063E0,3.29451E0,7.710515E1,9.469048E0,7.952196E0,2.7615479E1,1.3741577E1,0E0,0E0,0E0,5.34811E-1,0E0,5.315399E0,6.0815773E0,5.5706078E1,1.8936157E-1,1.5723629E0,2.9837513E0,0E0,2.1177002E1,1.6718044E0,0E0,4.456712E0,4.8507118E-1,8.33807E-2,4.125595E-1,2.3401375E0,3.1807594E0,3.0037878E0,1.5081152E1,1.6821083E1,0E0,0E0,0E0,0E0,4.5567632E-1,5.8867455E-1,4.539116E0,4.002014E0,5.804952E-1,2.2791274E0,1.7474097E0,0E0,0E0,0E0,0E0,0E0,0E0,0E0,0E0,0E0,0E0,0E0,0E0,0E0,0E0,0E0,0E0,0E0,0E0,0E0,0E0,0E0,0E0,0E0,0E0,0E0,0E0,0E0,0E0,0E0,0E0,0E0],"parents":[2147483647,0,0,1,1,2,2,3,3,4,4,5,5,6,6,7,7,8,8,9,9,10,10,11,11,12,12,13,13,14,14,18,18,20,20,21,21,22,22,23,23,24,24,25,25,27,27,28,28,30,30,31,31,32,32,33,33,34,34,35,35,36,36,37,37,38,38,43,43,44,44,45,45,46,46,47,47,48,48,49,49],"right_children":[2,4,6,8,10,12,14,16,18,20,22,24,26,28,30,-1,-1,-1,32,-1,34,36,38,40,42,44,-1,46,48,-1,50,52,54,56,58,60,62,64,66,-1,-1,-1,-1,68,70,72,74,76,78,80,-1,-1,-1,-1,-1,-1,-1,-1,-1,-1,-1,-1,-1,-1,-1,-1,-1,-1,-1,-1,-1,-1,-1,-1,-1,-1,-1,-1,-1,-1,-1],"split_conditions":[1.25E1,2.85E1,3.15E1,2.55E1,8.5E0,2.75E1,1.45E1,2.35E1,9.5E0,3.75E1,3.55E1,2.45E1,1.45E1,6.85E1,6.75E1,-1.2948592E-2,-1.09830685E-2,-1.0326645E-2,2.75E1,-1.1106326E-2,4.5E0,1.05E1,9.5E0,1.35E1,1.45E1,2.85E1,-6.3287746E-3,3.65E1,7.35E1,3.092646E-2,1.55E1,1.05E1,1.15E1,4.05E1,6.65E1,3.35E1,2.95E1,6.95E1,6.35E1,-1.1851772E-2,-3.7686608E-3,-5.374422E-3,3.1380947E-3,1.35E1,3.05E1,1.35E1,1.35E1,6.95E1,8.35E1,7.15E1,1.7754469E-2,-6.340309E-3,-1.0020536E-2,-4.9115494E-3,-1.4509747E-3,-3.8603407E-3,-1.0392959E-2,-5.4930914E-3,-1.0932674E-2,-5.3612003E-3,-2.8042295E-3,4.842749E-3,-1.7515426E-3,1.8536717E-5,-9.520647E-3,5.6335903E-3,-2.8616013E-3,1.0972276E-3,5.6174747E-3,8.03096E-3,4.7013448E-3,1.0457647E-2,1.7295681E-2,1.7263697E-2,2.0674875E-2,1.3707394E-3,-5.44831E-3,7.3570255E-3,-4.4189785E-3,-6.8948856E-3,5.7554883E-3],"split_indices":[1,0,0,0,1,0,1,0,1,0,0,0,1,0,0,0,0,0,0,0,1,1,1,1,1,0,0,0,0,0,1,1,1,0,0,0,0,0,0,0,0,0,0,1,0,1,1,0,0,0,0,0,0,0,0,0,0,0,0,0,0,0,0,0,0,0,0,0,0,0,0,0,0,0,0,0,0,0,0,0,0],"split_type":[0,0,0,0,0,0,0,0,0,0,0,0,0,0,0,0,0,0,0,0,0,0,0,0,0,0,0,0,0,0,0,0,0,0,0,0,0,0,0,0,0,0,0,0,0,0,0,0,0,0,0,0,0,0,0,0,0,0,0,0,0,0,0,0,0,0,0,0,0,0,0,0,0,0,0,0,0,0,0,0,0],"sum_hessian":[2.4008196E3,1.7996543E3,6.011654E2,5.4445166E2,1.2552026E3,1.545906E2,4.4657477E2,4.0760696E2,1.3684471E2,1.9977864E2,1.055424E3,9.1656685E1,6.293393E1,3.8053073E2,6.604404E1,3.2052396E2,8.7083E1,8.433878E1,5.2505924E1,4.8846973E1,1.5093167E2,2.8667868E2,7.687453E2,4.0614338E1,5.1042343E1,5.7628452E1,5.3054767E0,3.7028568E2,1.0245058E1,6.1653297E1,4.3907394E0,3.677244E1,1.5733482E1,6.0189716E1,9.074194E1,2.4313719E2,4.35415E1,4.2023035E2,3.4851492E2,3.915076E1,1.4635798E0,4.9395817E1,1.6465273E0,1.6465273E1,4.116318E1,7.4825516E1,2.9546017E2,4.5736866E0,5.6713715E0,2.378317E0,2.012422E0,2.7259172E1,9.513268E0,1.3904008E1,1.8294747E0,2.5612645E0,5.7628452E1,8.141163E1,9.330321E0,1.695923E2,7.354488E1,7.5008464E0,3.6040653E1,4.0394803E2,1.6282326E1,3.2399997E2,2.4514961E1,1.46357975E1,1.8294747E0,2.7442122E1,1.3721061E1,5.9640877E1,1.518464E1,2.0508412E2,9.037605E1,1.2806323E0,3.2930546E0,4.024844E0,1.6465273E0,1.0976849E0,1.2806323E0],"tree_param":{"num_deleted":"0","num_feature":"2","num_nodes":"81","size_leaf_vector":"0"}},{"base_weights":[-5.0417273E-3,-4.4893238E-1,1.311052E0,-1.0054073E0,-1.5255227E-2,-6.7911917E-1,1.7228067E0,-1.2241104E0,-6.914033E-1,-3.2275432E-1,4.847026E-1,-1.1084573E0,-1.9726892E-1,1.5500491E0,2.7106743E0,-1.2940845E0,-1.0495038E0,-8.690107E-1,-4.325727E-1,-8.546809E-1,-1.5003338E-1,5.531715E-1,-2.17247E-1,-1.1333393E0,-5.740566E-1,-4.4371393E-1,3.3193463E-1,9.902843E-1,1.7589777E0,4.8392025E-1,2.8770487E0,-1.1338983E0,-7.794591E-1,-6.441234E-1,-2.6491615E-1,-7.9758596E-1,-1.1619619E0,-1.1715194E-1,-1.0527015E0,3.342081E-1,7.66304E-1,-1.4993337E-1,-8.791839E-1,-4.8737895E-1,-1.0181783E-1,4.0411276E-1,-2.9840258E-1,8.414478E-1,1.2035469E0,1.8543028E0,1.0059736E0,9.789979E-1,-1.9094009E-2,2.916458E0,2.5813997E-1,-8.535514E-1,-6.64978E-1,-6.864207E-1,-3.6283207E-1,-2.8898729E-2,-3.3658916E-1,-9.1178054E-1,-6.464899E-1,-5.26795E-1,-6.54567E-2,1.5715386E-1,4.1698673E-1,6.777119E-1,1.0908384E0,-1.9774218E-1,5.776352E-1,-1.4239325E-1,-3.76827E-2,9.9727696E-1,1.8367407E0,1.7582515E0,2.0537367E0,1.2297101E0,4.9077767E-1,-7.376864E-1,5.670352E-1,3.078205E0,2.2317E0],"categories":[],"categories_nodes":[],"categories_segments":[],"categories_sizes":[],"default_left":[true,true,true,true,true,true,true,true,true,true,true,true,true,true,true,false,false,true,true,true,true,true,true,false,false,true,true,true,true,true,true,false,true,true,true,true,false,true,false,true,true,true,false,false,true,false,false,false,true,true,true,false,true,true,false,false,false,false,false,false,false,false,false,false,false,false,false,false,false,false,false,false,false,false,false,false,false,false,false,false,false,false,false],"id":1,"left_children":[1,3,5,7,9,11,13,15,17,19,21,23,25,27,29,-1,-1,31,33,35,37,39,41,-1,-1,43,45,47,49,51,53,-1,55,57,59,61,-1,63,-1,65,67,69,-1,-1,71,-1,-1,-1,73,75,77,-1,79,81,-1,-1,-1,-1,-1,-1,-1,-1,-1,-1,-1,-1,-1,-1,-1,-1,-1,-1,-1,-1,-1,-1,-1,-1,-1,-1,-1,-1,-1],"loss_changes":[1.3982172E3,4.319013E2,4.9583215E2,5.2984802E1,1.5494785E2,2.1337437E1,8.1204956E1,4.2713013E0,1.4523773E1,5.7203926E1,1.8568047E1,7.9200745E-2,6.7090755E0,4.8346924E1,2.5709839E1,0E0,0E0,3.6522675E0,4.578127E0,1.7530365E0,1.3894389E1,1.6078072E1,1.4201374E0,0E0,0E0,4.6923113E-1,8.739141E-1,2.7548447E0,2.0429016E1,1.5846198E0,6.251587E0,0E0,6.717453E-1,4.4693565E-1,1.2825303E0,1.6881332E0,0E0,9.639088E0,0E0,2.4907494E0,4.3379364E0,1.2558775E0,0E0,0E0,8.166529E-3,0E0,0E0,0E0,4.2369766E0,1.6474609E0,3.6713905E0,0E0,2.1451259E0,5.250244E-1,0E0,0E0,0E0,0E0,0E0,0E0,0E0,0E0,0E0,0E0,0E0,0E0,0E0,0E0,0E0,0E0,0E0,0E0,0E0,0E0,0E0,0E0,0E0,0E0,0E0,0E0,0E0,0E0,0E0],"parents":[2147483647,0,0,1,1,2,2,3,3,4,4,5,5,6,6,7,7,8,8,9,9,10,10,11,11,12,12,13,13,14,14,17,17,18,18,19,19,20,20,21,21,22,22,25,25,26,26,27,27,28,28,29,29,30,30,32,32,33,33,34,34,35,35,37,37,39,39,40,40,41,41,44,44,48,48,49,49,50,50,52,52,53,53],"right_children":[2,4,6,8,10,12,14,16,18,20,22,24,26,28,30,-1,-1,32,34,36,38,40,42,-1,-1,44,46,48,50,52,54,-1,56,58,60,62,-1,64,-1,66,68,70,-1,-1,72,-1,-1,-1,74,76,78,-1,80,82,-1,-1,-1,-1,-1,-1,-1,-1,-1,-1,-1,-1,-1,-1,-1,-1,-1,-1,-1,-1,-1,-1,-1,-1,-1,-1,-1,-1,-1],"split_conditions":[1.25E1,3.35E1,2.85E1,2.65E1,9.5E0,2.55E1,1.45E1,2.35E1,9.5E0,7.5E0,6.15E1,1.35E1,2.75E1,3.65E1,3.15E1,-1.2940845E-2,-1.0495038E-2,8.5E0,2.95E1,6.55E1,6.95E1,4.35E1,7.85E1,-1.1333393E-2,-5.740566E-3,1.35E1,1.45E1,3.35E1,5.95E1,2.95E1,7.45E1,-1.1338983E-2,3.05E1,1.15E1,3.05E1,5.5E0,-1.1619619E-2,3.55E1,-1.0527015E-2,3.65E1,5.55E1,1.15E1,-8.791839E-3,-4.8737894E-3,2.65E1,4.0411274E-3,-2.9840257E-3,8.414477E-3,1.35E1,1.35E1,6.85E1,9.789979E-3,3.05E1,5.45E1,2.5813996E-3,-8.535514E-3,-6.64978E-3,-6.864207E-3,-3.6283205E-3,-2.8898727E-4,-3.3658915E-3,-9.117805E-3,-6.464899E-3,-5.2679502E-3,-6.5456703E-4,1.5715385E-3,4.1698674E-3,6.777119E-3,1.0908384E-2,-1.9774218E-3,5.7763522E-3,-1.4239324E-3,-3.76827E-4,9.97277E-3,1.8367406E-2,1.7582515E-2,2.0537367E-2,1.22971E-2,4.9077766E-3,-7.3768636E-3,5.670352E-3,3.078205E-2,2.2317E-2],"split_indices":[1,0,0,0,1,0,1,0,1,1,0,1,0,0,0,0,0,1,0,0,0,0,0,0,0,1,1,0,0,0,0,0,0,1,0,1,0,0,0,0,0,1,0,0,0,0,0,0,1,1,0,0,0,0,0,0,0,0,0,0,0,0,0,0,0,0,0,0,0,0,0,0,0,0,0,0,0,0,0,0,0,0,0],"split_type":[0,0,0,0,0,0,0,0,0,0,0,0,0,0,0,0,0,0,0,0,0,0,0,0,0,0,0,0,0,0,0,0,0,0,0,0,0,0,0,0,0,0,0,0,0,0,0,0,0,0,0,0,0,0,0,0,0,0,0,0,0,0,0,0,0,0,0,0,0,0,0,0,0,0,0,0,0,0,0,0,0,0,0],"sum_hessian":[2.3913733E3,1.788731E3,6.026424E2,7.828697E2,1.0058613E3,1.0319782E2,4.9944455E2,4.5975385E2,3.231158E2,6.230245E2,3.8283682E2,5.388489E1,4.9312935E1,4.2728952E2,7.215503E1,3.2364185E2,1.3611201E2,1.9022652E2,1.3288928E2,1.5174596E2,4.7127853E2,3.4900632E2,3.3830517E1,5.0416695E1,3.4681947E0,3.3755066E1,1.5557867E1,1.17696075E2,3.0959344E2,5.2880774E0,6.686695E1,4.5115585E1,1.4511093E2,5.749704E1,7.539224E1,1.3100075E2,2.0745216E1,4.5580475E2,1.5473793E1,1.7341502E2,1.7559128E2,3.1821077E1,2.009439E0,2.9554958E1,4.2001076E0,1.4281435E1,1.2764324E0,7.223126E1,4.5464817E1,2.7350684E2,3.608662E1,2.18817E0,3.0999074E0,6.5763725E1,1.1032234E0,8.417622E1,6.093471E1,4.872942E1,8.767619E0,1.788863E1,5.7503616E1,7.1744E1,5.925674E1,5.0045338E1,4.057594E2,5.6170696E1,1.1724434E2,1.4036293E2,3.5228344E1,3.0542343E1,1.2787338E0,1.8251868E0,2.3749208E0,3.623565E1,9.229171E0,1.9122528E2,8.228155E1,2.4193232E1,1.1893389E1,1.2764324E0,1.8234749E0,5.0370377E1,1.5393352E1],"tree_param":{"num_deleted":"0","num_feature":"2","num_nodes":"83","size_leaf_vector":"0"}},{"base_weights":[-1.2520754E-3,-4.2936087E-1,1.2538023E0,-1.0783501E0,-7.213359E-2,-5.2776873E-1,1.7222486E0,-1.2328161E0,-7.976973E-1,-7.9011434E-1,6.633901E-2,-8.50293E-1,4.3615404E-1,1.5547633E0,2.704469E0,-1.2742697E0,-1.0652127E0,-9.797446E-1,-5.4814863E-1,-8.9728653E-1,-6.5914536E-1,-2.0199041E-1,2.547945E-1,-1.1145906E0,-6.289024E-1,3.8257608E-1,5.6201833E-1,1.0934117E0,1.6774364E0,2.817601E0,1.4400016E0,-1.0343757E0,-7.5600207E-1,-6.7157257E-1,-2.492367E-1,-8.915048E-1,-5.598553E-1,-3.3979547E-1,-4.9748674E-2,4.6430223E-2,5.156628E-1,-1.1534511E0,-2.7377027E-1,-6.6420555E-1,3.1292632E-1,4.861919E-1,2.4129175E-1,3.539524E-2,8.840515E-1,9.3527263E-1,1.6020758E0,1.7457209E0,1.2171175E0,1.5856595E0,2.8887296E0,7.693974E-1,1.6985803E0,-1.131739E0,-6.0325795E-1,-7.0909035E-1,-4.8722228E-1,-5.536437E-1,1.5556988E-1,-4.187727E-1,-9.3104786E-1,4.730547E-1,-6.199848E-1,-3.814063E-1,-1.2528919E-1,-2.4344012E-1,1.6529806E-1,1.4289434E-1,-4.6233195E-1,6.066649E-1,4.588495E-2,3.068314E-1,-2.969892E-1,6.532157E-1,1.0651551E0,1.2172604E0,2.3204958E0,1.6055082E0,2.04512E0,1.3239399E0,6.298937E-1,1.8376695E-1,1.1990869E0,5.396797E-1,1.9859488E0],"categories":[],"categories_nodes":[],"categories_segments":[],"categories_sizes":[],"default_left":[true,true,true,true,true,true,true,true,true,true,true,true,true,true,true,false,false,true,true,false,true,true,true,true,true,true,true,true,true,true,true,false,true,true,true,true,true,true,true,true,true,false,false,false,false,false,false,true,false,true,true,true,true,false,false,true,true,false,false,false,false,false,false,false,false,false,false,false,false,false,false,false,false,false,false,false,false,false,false,false,false,false,false,false,false,false,false,false,false],"id":2,"left_children":[1,3,5,7,9,11,13,15,17,19,21,23,25,27,29,-1,-1,31,33,-1,35,37,39,41,43,45,47,49,51,53,55,-1,57,59,61,63,65,67,69,71,73,-1,-1,-1,-1,-1,-1,75,-1,77,79,81,83,-1,-1,85,87,-1,-1,-1,-1,-1,-1,-1,-1,-1,-1,-1,-1,-1,-1,-1,-1,-1,-1,-1,-1,-1,-1,-1,-1,-1,-1,-1,-1,-1,-1,-1,-1],"loss_changes":[1.2858898E3,4.1364075E2,5.0892572E2,2.6478455E1,1.1459046E2,4.0008602E1,7.512366E1,1.468689E0,9.807922E0,2.024109E0,4.893628E1,4.908806E0,4.9996376E-3,2.1614624E1,5.7983093E0,0E0,0E0,8.1185913E-1,3.459921E0,0E0,1.5225754E0,8.36224E0,3.0867348E1,1.0698357E0,2.0188122E0,2.6354933E-1,1.2591956E0,5.7331314E0,8.104187E0,8.691406E-1,2.8879166E-2,0E0,9.991703E-1,1.3172531E-1,3.8227406E0,6.895828E-2,4.2733536E0,1.8218517E0,7.992934E0,1.5626194E1,1.0756668E1,0E0,0E0,0E0,0E0,0E0,0E0,4.456231E-1,0E0,1.9045868E0,2.6818695E0,8.516235E0,2.0102081E0,0E0,0E0,7.7908945E-1,5.0394917E-1,0E0,0E0,0E0,0E0,0E0,0E0,0E0,0E0,0E0,0E0,0E0,0E0,0E0,0E0,0E0,0E0,0E0,0E0,0E0,0E0,0E0,0E0,0E0,0E0,0E0,0E0,0E0,0E0,0E0,0E0,0E0,0E0],"parents":[2147483647,0,0,1,1,2,2,3,3,4,4,5,5,6,6,7,7,8,8,9,9,10,10,11,11,12,12,13,13,14,14,17,17,18,18,20,20,21,21,22,22,23,23,24,24,25,25,26,26,27,27,28,28,29,29,30,30,32,32,33,33,34,34,35,35,36,36,37,37,38,38,39,39,40,40,47,47,49,49,50,50,51,51,52,52,55,55,56,56],"right_children":[2,4,6,8,10,12,14,16,18,20,22,24,26,28,30,-1,-1,32,34,-1,36,38,40,42,44,46,48,50,52,54,56,-1,58,60,62,64,66,68,70,72,74,-1,-1,-1,-1,-1,-1,76,-1,78,80,82,84,-1,-1,86,88,-1,-1,-1,-1,-1,-1,-1,-1,-1,-1,-1,-1,-1,-1,-1,-1,-1,-1,-1,-1,-1,-1,-1,-1,-1,-1,-1,-1,-1,-1,-1,-1],"split_conditions":[1.25E1,3.05E1,2.95E1,2.55E1,8.5E0,2.75E1,1.45E1,2.35E1,9.5E0,5.5E0,4.05E1,2.45E1,1.35E1,3.55E1,6.45E1,-1.2742696E-2,-1.0652127E-2,2.95E1,1.05E1,-8.9728655E-3,3.75E1,3.55E1,9.5E0,1.35E1,1.45E1,2.85E1,2.85E1,1.35E1,5.75E1,3.25E1,1.55E1,-1.03437565E-2,8.5E0,2.95E1,2.85E1,3.15E1,3.85E1,1.05E1,9.5E0,6.15E1,5.95E1,-1.153451E-2,-2.7377026E-3,-6.642055E-3,3.1292632E-3,4.8619187E-3,2.4129173E-3,1.45E1,8.840515E-3,3.15E1,3.45E1,1.35E1,6.95E1,1.5856594E-2,2.8887294E-2,7.15E1,6.85E1,-1.131739E-2,-6.0325796E-3,-7.0909034E-3,-4.872223E-3,-5.536437E-3,1.5556988E-3,-4.187727E-3,-9.310478E-3,4.730547E-3,-6.199848E-3,-3.814063E-3,-1.2528918E-3,-2.434401E-3,1.6529806E-3,1.4289434E-3,-4.6233195E-3,6.0666488E-3,4.5884948E-4,3.068314E-3,-2.969892E-3,6.532157E-3,1.0651551E-2,1.2172603E-2,2.3204958E-2,1.6055081E-2,2.04512E-2,1.3239399E-2,6.298937E-3,1.8376694E-3,1.19908685E-2,5.396797E-3,1.9859487E-2],"split_indices":[1,0,0,0,1,0,1,0,1,1,0,0,1,0,0,0,0,0,1,0,0,0,1,1,1,0,0,1,0,0,1,0,1,0,0,0,0,1,1,0,0,0,0,0,0,0,0,1,0,0,0,1,0,0,0,0,0,0,0,0,0,0,0,0,0,0,0,0,0,0,0,0,0,0,0,0,0,0,0,0,0,0,0,0,0,0,0,0,0],"split_type":[0,0,0,0,0,0,0,0,0,0,0,0,0,0,0,0,0,0,0,0,0,0,0,0,0,0,0,0,0,0,0,0,0,0,0,0,0,0,0,0,0,0,0,0,0,0,0,0,0,0,0,0,0,0,0,0,0,0,0,0,0,0,0,0,0,0,0,0,0,0,0,0,0,0,0,0,0,0,0,0,0,0,0,0,0,0,0,0,0],"sum_hessian":[2.3912427E3,1.783526E3,6.077167E2,6.3247125E2,1.1510547E3,1.26498276E2,4.812184E2,4.057574E2,2.2671385E2,1.853433E2,9.657114E2,9.487231E1,3.1625967E1,4.1332278E2,6.7895615E1,3.2000674E2,8.575065E1,1.2939403E2,9.7319824E1,9.871418E1,8.6629135E1,3.9839337E2,5.6731805E2,4.140647E1,5.3465836E1,2.5016521E1,6.609446E0,8.8899734E1,3.2442307E2,6.1192436E1,6.7031813E0,1.0108832E2,2.8305702E1,6.799658E1,2.9323246E1,2.3546537E1,6.30826E1,2.0846478E2,1.8992857E2,3.160535E2,2.5126456E2,3.922192E1,2.1845486E0,5.1818268E1,1.6475673E0,1.3023819E1,1.1992703E1,2.9292061E0,3.6802397E0,6.998173E1,1.8918007E1,2.8008267E2,4.43404E1,4.6116643E0,5.658077E1,2.9717245E0,3.7314568E0,6.328579E0,2.1977123E1,5.413328E1,1.38633E1,1.6527328E1,1.2795917E1,2.712248E0,2.083429E1,3.0924795E0,5.999012E1,1.7394429E2,3.4520493E1,9.985641E1,9.0072174E1,2.6628375E2,4.976974E1,2.1024582E2,4.1018738E1,1.6547557E0,1.2744504E0,2.3965904E1,4.6015823E1,1.4073838E1,4.8441696E0,1.9508441E2,8.499825E1,3.6454384E1,7.8860183E0,1.8618519E0,1.1098727E0,1.3132766E0,2.4181802E0],"tree_param":{"num_deleted":"0","num_feature":"2","num_nodes":"89","size_leaf_vector":"0"}},{"base_weights":[-9.123214E-3,-4.3423018E-1,1.2409755E0,-9.9835044E-1,-4.965095E-3,-6.024049E-1,1.6965122E0,-1.1816921E0,-6.67557E-1,-8.228363E-1,1.5735643E-1,-9.128089E-1,2.7568045E-1,1.3751359E0,2.2047966E0,-1.282862E0,-9.8397267E-1,-8.341828E-1,-4.314855E-1,-7.635673E-1,-1.198311E0,-8.7266594E-2,4.4907612E-1,-1.1097306E0,-5.4437E-1,1.1218303E-1,4.3054318E-1,9.9591345E-1,1.5350021E0,1.9367379E0,2.610883E0,-1.0605124E0,-8.565351E-1,-1.1388023E0,-7.356307E-1,-5.472302E-1,-1.9355023E-1,-1.1853259E0,-6.9670254E-1,-3.429866E-1,8.445313E-2,6.289253E-2,6.039138E-1,-6.035414E-1,4.30866E-1,2.5794804E-1,-3.5276023E-1,3.0832273E-1,6.631121E-1,1.0640516E0,5.4490495E-1,1.6026806E0,5.0875556E-1,8.592123E-1,2.0632205E0,1.0736033E0,2.6703038E0,-8.759598E-1,-5.811955E-1,-6.5485054E-1,-4.8226276E-1,-9.266394E-2,-3.070215E-1,-4.8453423E-1,-1.2314483E0,-8.4223586E-1,-5.202316E-1,-4.676566E-1,-2.6426035E-1,2.1840401E-1,-4.7958818E-1,1.1230494E-1,-2.095067E-1,6.956084E-1,-7.793331E-2,-5.3663856E-1,-8.505961E-1,-7.1694635E-2,-4.9263197E-1,7.044246E-1,1.2318567E0,1.6407815E0,1.2832243E0,3.2283896E-1,1.0976585E0,2.096524E0,-3.102034E-1,2.8127785E0,1.7327946E0],"categories":[],"categories_nodes":[],"categories_segments":[],"categories_sizes":[],"default_left":[true,true,true,true,true,true,true,true,true,true,true,true,true,true,true,false,true,true,true,true,false,true,true,false,true,true,true,true,true,true,true,false,false,false,true,true,true,true,true,true,true,true,true,true,false,false,true,false,false,true,false,true,true,false,true,false,true,false,false,false,false,false,false,false,false,false,false,false,false,false,false,false,false,false,false,false,false,false,false,false,false,false,false,false,false,false,false,false,false],"id":3,"left_children":[1,3,5,7,9,11,13,15,17,19,21,23,25,27,29,-1,31,33,35,37,-1,39,41,-1,43,45,47,49,51,53,55,-1,-1,-1,57,59,61,63,65,67,69,71,73,75,-1,-1,77,-1,-1,79,-1,81,83,-1,85,-1,87,-1,-1,-1,-1,-1,-1,-1,-1,-1,-1,-1,-1,-1,-1,-1,-1,-1,-1,-1,-1,-1,-1,-1,-1,-1,-1,-1,-1,-1,-1,-1,-1],"loss_changes":[1.2611221E3,4.288241E2,5.0671198E2,4.562097E1,1.3376923E2,3.2977245E1,7.588928E1,8.560303E0,1.046447E1,2.7983627E0,6.003833E1,5.8488464E0,7.651341E-1,1.6576782E1,1.5135071E1,0E0,7.5476074E-1,3.9730148E0,3.0868835E0,3.3160248E0,0E0,2.0146957E1,2.2901917E1,0E0,2.1609898E0,1.2417691E0,2.5450873E-1,2.2293472E0,1.3647736E1,1.3983215E1,3.6080933E0,0E0,0E0,0E0,2.1760254E0,2.2568321E-1,4.2359328E-1,6.849289E-3,2.8799477E0,1.6848106E0,2.0873745E1,1.516386E0,1.7168022E1,6.376076E-2,0E0,0E0,1.4061469E-1,0E0,0E0,3.8613052E0,0E0,2.6663208E-1,1.2165751E0,0E0,8.772003E0,0E0,4.151886E0,0E0,0E0,0E0,0E0,0E0,0E0,0E0,0E0,0E0,0E0,0E0,0E0,0E0,0E0,0E0,0E0,0E0,0E0,0E0,0E0,0E0,0E0,0E0,0E0,0E0,0E0,0E0,0E0,0E0,0E0,0E0,0E0],"parents":[2147483647,0,0,1,1,2,2,3,3,4,4,5,5,6,6,7,7,8,8,9,9,10,10,11,11,12,12,13,13,14,14,16,16,17,17,18,18,19,19,21,21,22,22,24,24,25,25,26,26,27,27,28,28,29,29,30,30,34,34,35,35,36,36,37,37,38,38,39,39,40,40,41,41,42,42,43,43,46,46,49,49,51,51,52,52,54,54,56,56],"right_children":[2,4,6,8,10,12,14,16,18,20,22,24,26,28,30,-1,32,34,36,38,-1,40,42,-1,44,46,48,50,52,54,56,-1,-1,-1,58,60,62,64,66,68,70,72,74,76,-1,-1,78,-1,-1,80,-1,82,84,-1,86,-1,88,-1,-1,-1,-1,-1,-1,-1,-1,-1,-1,-1,-1,-1,-1,-1,-1,-1,-1,-1,-1,-1,-1,-1,-1,-1,-1,-1,-1,-1,-1,-1,-1],"split_conditions":[1.25E1,3.35E1,2.95E1,2.75E1,8.5E0,2.75E1,1.35E1,2.35E1,9.5E0,6.55E1,9.5E0,2.55E1,2.85E1,3.65E1,1.45E1,-1.2828619E-2,9.5E0,7.5E0,1.05E1,3.65E1,-1.198311E-2,4.25E1,3.95E1,-1.1097305E-2,1.45E1,1.35E1,1.35E1,3.55E1,6.35E1,3.45E1,3.15E1,-1.0605124E-2,-8.56535E-3,-1.1388022E-2,3.05E1,2.95E1,1.15E1,3.5E0,5.5E0,3.65E1,6.05E1,3.85E1,6.15E1,1.35E1,4.30866E-3,2.5794804E-3,1.45E1,3.0832272E-3,6.631121E-3,3.15E1,5.449049E-3,5.55E1,7.7E1,8.592122E-3,7.4E1,1.0736032E-2,6.15E1,-8.759598E-3,-5.8119544E-3,-6.5485053E-3,-4.8226276E-3,-9.2663936E-4,-3.070215E-3,-4.845342E-3,-1.2314483E-2,-8.422359E-3,-5.2023157E-3,-4.676566E-3,-2.6426034E-3,2.1840401E-3,-4.795882E-3,1.1230494E-3,-2.095067E-3,6.9560837E-3,-7.793331E-4,-5.3663854E-3,-8.505961E-3,-7.169463E-4,-4.9263197E-3,7.044246E-3,1.2318566E-2,1.6407816E-2,1.2832243E-2,3.2283897E-3,1.0976585E-2,2.0965239E-2,-3.1020339E-3,2.8127784E-2,1.7327946E-2],"split_indices":[1,0,0,0,1,0,1,0,1,0,1,0,0,0,1,0,1,1,1,0,0,0,0,0,1,1,1,0,0,0,0,0,0,0,0,0,1,1,1,0,0,0,0,1,0,0,1,0,0,0,0,0,0,0,0,0,0,0,0,0,0,0,0,0,0,0,0,0,0,0,0,0,0,0,0,0,0,0,0,0,0,0,0,0,0,0,0,0,0],"split_type":[0,0,0,0,0,0,0,0,0,0,0,0,0,0,0,0,0,0,0,0,0,0,0,0,0,0,0,0,0,0,0,0,0,0,0,0,0,0,0,0,0,0,0,0,0,0,0,0,0,0,0,0,0,0,0,0,0,0,0,0,0,0,0,0,0,0,0,0,0,0,0,0,0,0,0,0,0,0,0,0,0,0,0,0,0,0,0,0,0],"sum_hessian":[2.3710781E3,1.7698707E3,6.0120734E2,7.6422974E2,1.00564105E3,1.19066986E2,4.8214035E2,4.9004886E2,2.7418088E2,1.6586194E2,8.397791E2,8.794042E1,3.1126566E1,2.976492E2,1.8449117E2,3.205436E2,1.6950525E2,1.5924658E2,1.1493428E2,1.4586986E2,1.999208E1,4.571416E2,3.826375E2,5.5998558E1,3.1941862E1,1.5979985E1,1.5146582E1,9.0411514E1,2.0723767E2,1.1460766E2,6.988351E1,1.0132625E2,6.8179E1,3.6346405E1,1.22900185E2,7.644658E1,3.8487698E1,1.7672293E1,1.2819756E2,1.8325148E2,2.7389014E2,1.0991144E2,2.7272607E2,3.0474018E1,1.4678439E0,1.2504795E1,3.4751904E0,1.1453319E1,3.6932628E0,7.7364105E1,1.3047407E1,1.9388945E2,1.3348228E1,1.2858355E1,1.01749306E2,3.3102973E0,6.657321E1,6.1943005E1,6.0957176E1,2.5359009E1,5.108757E1,2.13353E1,1.71524E1,1.8017399E0,1.5870554E1,6.81897E1,6.0007862E1,6.901686E1,1.1423461E2,2.2182338E2,5.2066753E1,9.3532616E1,1.6378822E1,2.403797E2,3.234637E1,2.6476328E1,3.997689E0,1.6573663E0,1.8178241E0,2.6267506E1,5.1096603E1,1.6953331E2,2.4356134E1,1.1322059E1,2.0261695E0,1.0045638E2,1.2929219E0,5.6054283E1,1.0518926E1],"tree_param":{"num_deleted":"0","num_feature":"2","num_nodes":"89","size_leaf_vector":"0"}},{"base_weights":[6.0182726E-3,-4.2025587E-1,1.2652805E0,-1.1463977E0,-9.805763E-2,-6.723764E-1,1.655057E0,-1.2545643E0,-9.209046E-1,-8.256983E-1,4.7289237E-2,-8.620935E-1,2.4341434E-1,1.4810872E0,2.589087E0,-1.0248717E0,-7.6608765E-1,-1.1384969E0,-7.352769E-1,-4.0784794E-1,2.1404837E-1,-1.1571213E0,-6.248657E-1,3.354579E-1,-6.248525E-2,8.94968E-1,1.5970914E0,1.0280309E0,2.6660266E0,-1.2113887E0,-9.5502454E-1,-8.253721E-1,-5.650543E-1,-1.1929042E0,-6.3121665E-1,-9.1953886E-1,-5.3015864E-1,-5.4890364E-1,-2.4538852E-1,-2.454819E-2,4.9911478E-1,-1.2088281E0,1.5113103E-1,-5.597284E-1,-8.909241E-1,-1.7251799E-1,1.4743318E-1,6.875561E-1,1.0181828E0,1.6317236E0,-1.3204336E-1,2.732622E0,1.2588589E0,-8.0035105E-2,-9.6835905E-1,-2.5031555E-1,-1.0040658E0,-3.1050712E-1,-6.93282E-1,-6.394314E-1,-5.051789E-1,-3.3296862E-1,-2.8094308E-2,3.578697E-2,-5.012433E-1,5.5572575E-1,-1.3111068E-1,5.326592E-1,1.2138759E0,1.4484727E0,1.7294654E0,-5.845054E-1,3.6949664E-1,5.177939E-1,1.5272285E0],"categories":[],"categories_nodes":[],"categories_segments":[],"categories_sizes":[],"default_left":[true,true,true,true,true,true,true,false,true,true,true,true,true,true,true,true,true,true,true,true,true,true,true,false,true,true,true,false,true,false,false,false,false,false,true,true,true,true,true,true,true,false,false,false,false,false,false,true,false,true,true,false,true,false,false,false,false,false,false,false,false,false,false,false,false,false,false,false,false,false,false,false,false,false,false],"id":4,"left_children":[1,3,5,7,9,11,13,-1,15,17,19,21,23,25,27,29,31,33,35,37,39,41,43,-1,45,47,49,-1,51,-1,-1,-1,-1,-1,53,55,57,59,61,63,65,-1,-1,-1,-1,-1,-1,67,-1,69,71,-1,73,-1,-1,-1,-1,-1,-1,-1,-1,-1,-1,-1,-1,-1,-1,-1,-1,-1,-1,-1,-1,-1,-1],"loss_changes":[1.2704602E3,4.1358356E2,4.5317517E2,1.2097473E1,1.2968712E2,1.7749344E1,7.718518E1,0E0,2.1105804E0,4.9371033E0,7.770953E1,5.1453476E0,5.3070617E-1,2.7307922E1,6.501526E0,2.0667267E-1,4.4223404E-1,4.602356E-1,5.604973E0,6.1575584E0,5.0965176E1,2.6312637E0,3.444538E-1,0E0,1.4162798E-1,1.1426773E0,2.126764E1,0E0,3.3735962E0,0E0,0E0,0E0,0E0,0E0,1.1083846E0,4.475067E0,2.6025105E0,2.555313E-1,2.4535427E0,1.177444E1,1.2252304E1,0E0,0E0,0E0,0E0,0E0,0E0,1.7951889E0,0E0,3.6692505E0,1.9923522E0,0E0,2.3138618E-1,0E0,0E0,0E0,0E0,0E0,0E0,0E0,0E0,0E0,0E0,0E0,0E0,0E0,0E0,0E0,0E0,0E0,0E0,0E0,0E0,0E0,0E0],"parents":[2147483647,0,0,1,1,2,2,3,3,4,4,5,5,6,6,8,8,9,9,10,10,11,11,12,12,13,13,14,14,15,15,16,16,17,17,18,18,19,19,20,20,21,21,22,22,24,24,25,25,26,26,28,28,34,34,35,35,36,36,37,37,38,38,39,39,40,40,47,47,49,49,50,50,52,52],"right_children":[2,4,6,8,10,12,14,-1,16,18,20,22,24,26,28,30,32,34,36,38,40,42,44,-1,46,48,50,-1,52,-1,-1,-1,-1,-1,54,56,58,60,62,64,66,-1,-1,-1,-1,-1,-1,68,-1,70,72,-1,74,-1,-1,-1,-1,-1,-1,-1,-1,-1,-1,-1,-1,-1,-1,-1,-1,-1,-1,-1,-1,-1,-1],"split_conditions":[1.25E1,2.85E1,2.85E1,2.45E1,8.5E0,2.75E1,1.45E1,-1.2545642E-2,9.5E0,3.55E1,3.55E1,2.45E1,1.35E1,3.35E1,3.05E1,7.5E0,2.75E1,7.5E0,5.5E0,9.5E0,9.5E0,1.35E1,1.35E1,3.3545787E-3,1.45E1,3.05E1,7.05E1,1.0280308E-2,6.75E1,-1.2113887E-2,-9.5502455E-3,-8.253721E-3,-5.6505427E-3,-1.1929042E-2,3.25E1,4.05E1,4.85E1,3.05E1,3.35E1,6.15E1,6.15E1,-1.2088281E-2,1.5113103E-3,-5.5972836E-3,-8.90924E-3,-1.7251798E-3,1.4743317E-3,1.35E1,1.01818275E-2,4.15E1,7.65E1,2.7326219E-2,7.15E1,-8.0035103E-4,-9.68359E-3,-2.5031555E-3,-1.0040658E-2,-3.1050711E-3,-6.9328197E-3,-6.394314E-3,-5.0517893E-3,-3.3296861E-3,-2.809431E-4,3.578697E-4,-5.012433E-3,5.557257E-3,-1.3111068E-3,5.3265914E-3,1.2138759E-2,1.4484727E-2,1.7294653E-2,-5.8450536E-3,3.6949664E-3,5.177939E-3,1.5272285E-2],"split_indices":[1,0,0,0,1,0,1,0,1,0,0,0,1,0,0,1,0,1,1,1,1,1,1,0,1,0,0,0,0,0,0,0,0,0,0,0,0,0,0,0,0,0,0,0,0,0,0,1,0,0,0,0,0,0,0,0,0,0,0,0,0,0,0,0,0,0,0,0,0,0,0,0,0,0,0],"split_type":[0,0,0,0,0,0,0,0,0,0,0,0,0,0,0,0,0,0,0,0,0,0,0,0,0,0,0,0,0,0,0,0,0,0,0,0,0,0,0,0,0,0,0,0,0,0,0,0,0,0,0,0,0,0,0,0,0,0,0,0,0,0,0,0,0,0,0,0,0,0,0,0,0,0,0],"sum_hessian":[2.3647788E3,1.7672212E3,5.975576E2,5.423539E2,1.2248673E3,9.9951866E1,4.976057E2,3.6344827E2,1.7890562E2,2.0315327E2,1.02171405E3,8.284762E1,1.7104254E1,4.2165518E2,7.5950554E1,1.0366777E2,7.5237854E1,4.2957527E1,1.6019574E2,2.7358105E2,7.48133E2,3.519712E1,4.7650494E1,1.30737915E1,4.030462E0,7.110535E1,3.5054984E2,4.2421207E0,7.1708435E1,2.3791746E1,7.987602E1,5.5704906E1,1.9532944E1,3.757584E1,5.3816857E0,8.255335E1,7.7642395E1,1.451637E2,1.2841737E2,4.0775864E2,3.4037433E2,3.3932003E1,1.2651173E0,4.0772266E1,6.8782296E0,2.761261E0,1.2692008E0,2.8951086E1,4.2154255E1,3.437219E2,6.8279505E0,6.7568756E1,4.139678E0,2.5121155E0,2.8695703E0,9.701914E0,7.285144E1,3.4325443E1,4.3316948E1,4.2841187E1,1.023225E2,9.114798E1,3.7269394E1,3.6276813E2,4.499053E1,3.1242822E2,2.7946133E1,2.392265E1,5.0284367E0,1.2506443E2,2.1865746E2,3.5026393E0,3.3253112E0,1.8793957E0,2.2602823E0],"tree_param":{"num_deleted":"0","num_feature":"2","num_nodes":"75","size_leaf_vector":"0"}},{"base_weights":[-2.8561857E-2,-4.4676402E-1,1.1969422E0,-9.792556E-1,-4.2037986E-2,-7.597977E-1,1.5204078E0,-1.203734E0,-6.69621E-1,-3.1406498E-1,4.0742114E-1,-9.9157465E-1,-3.9336494E-1,8.96226E-1,1.7643617E0,-1.2627603E0,-1.040705E0,-1.1168382E0,-5.954537E-1,-8.1768227E-1,-1.328045E-1,9.438584E-2,5.6579113E-1,-1.0914589E0,-7.5018895E-1,-4.670148E-1,6.9076985E-1,6.758359E-1,1.4345903E0,1.6052427E0,2.5841591E0,-6.517881E-1,-2.8655455E-1,-7.648352E-1,-1.1456773E0,-8.585981E-2,-6.517632E-1,-1.9053367E-1,2.1640149E-1,6.722611E-1,-1.4874575E-1,-1.1379782E0,-2.6651952E-1,-5.596238E-1,-3.4176916E-1,5.356454E-1,7.740095E-1,7.298106E-1,1.7844573E0,1.6647724E0,-2.596034E-1,2.7334356E0,1.1031479E0,-7.861427E-1,-5.895192E-1,-5.389117E-1,-2.3470521E-1,-1.1853117E0,-7.2535473E-1,-2.588933E-1,1.2091883E-1,-4.976266E-1,-8.424256E-1,8.543072E-2,-4.7747365E-1,7.785443E-2,4.987466E-1,5.3481025E-1,8.0487025E-1,-2.6512867E-1,8.003571E-1,-2.8029445E-1,-5.340272E-1,5.991678E-1,3.198901E-1,1.1626555E0,6.42449E-1,3.6682945E-1,9.331728E-1,1.4427452E0,2.1790702E0,1.7264054E0,1.2039632E0,-7.466633E-1,6.807516E-1,5.7247317E-1,1.3228396E0],"categories":[],"categories_nodes":[],"categories_segments":[],"categories_sizes":[],"default_left":[true,true,true,true,true,true,true,true,true,true,true,true,true,true,true,false,false,false,true,true,true,true,true,true,false,true,false,true,true,true,true,true,true,true,false,true,true,true,true,true,true,false,false,false,true,true,true,true,true,true,true,false,true,false,false,false,false,false,false,false,false,false,false,false,false,false,false,false,false,false,false,false,false,false,false,false,false,false,false,false,false,false,false,false,false,false,false],"id":5,"left_children":[1,3,5,7,9,11,13,15,17,19,21,23,25,27,29,-1,-1,-1,31,33,35,37,39,41,-1,43,-1,45,47,49,51,53,55,57,-1,59,61,63,65,67,69,-1,-1,-1,71,73,75,77,79,81,83,-1,85,-1,-1,-1,-1,-1,-1,-1,-1,-1,-1,-1,-1,-1,-1,-1,-1,-1,-1,-1,-1,-1,-1,-1,-1,-1,-1,-1,-1,-1,-1,-1,-1,-1,-1],"loss_changes":[1.2226497E3,3.8327167E2,3.853299E2,5.2576416E1,1.2380889E2,6.9794235E0,7.7782715E1,2.958252E0,1.0116211E1,5.7469273E1,1.88764E1,4.4685745E-1,3.1393304E0,1.6649315E1,4.4599976E1,0E0,0E0,0E0,4.7021484E0,2.0139236E0,1.1272609E1,4.542558E0,1.9374695E1,1.0372162E0,0E0,1.9880152E-1,0E0,1.0615311E0,9.113525E0,3.54682E1,1.0051453E1,1.5178757E0,4.638667E-1,1.5740433E0,0E0,1.5329973E1,7.099552E-1,3.157137E0,3.5258017E0,3.5920105E0,3.931911E0,0E0,0E0,0E0,4.963708E-2,4.5824814E-1,2.3634224E0,8.169813E-1,5.6925964E-1,6.611511E0,5.376047E0,0E0,6.912613E-2,0E0,0E0,0E0,0E0,0E0,0E0,0E0,0E0,0E0,0E0,0E0,0E0,0E0,0E0,0E0,0E0,0E0,0E0,0E0,0E0,0E0,0E0,0E0,0E0,0E0,0E0,0E0,0E0,0E0,0E0,0E0,0E0,0E0,0E0],"parents":[2147483647,0,0,1,1,2,2,3,3,4,4,5,5,6,6,7,7,8,8,9,9,10,10,11,11,12,12,13,13,14,14,18,18,19,19,20,20,21,21,22,22,23,23,25,25,27,27,28,28,29,29,30,30,31,31,32,32,33,33,35,35,36,36,37,37,38,38,39,39,40,40,44,44,45,45,46,46,47,47,48,48,49,49,50,50,52,52],"right_children":[2,4,6,8,10,12,14,16,18,20,22,24,26,28,30,-1,-1,-1,32,34,36,38,40,42,-1,44,-1,46,48,50,52,54,56,58,-1,60,62,64,66,68,70,-1,-1,-1,72,74,76,78,80,82,84,-1,86,-1,-1,-1,-1,-1,-1,-1,-1,-1,-1,-1,-1,-1,-1,-1,-1,-1,-1,-1,-1,-1,-1,-1,-1,-1,-1,-1,-1,-1,-1,-1,-1,-1,-1],"split_conditions":[1.25E1,3.35E1,2.75E1,2.65E1,9.5E0,2.55E1,3.65E1,2.35E1,8.5E0,8.5E0,4.05E1,2.45E1,1.45E1,1.35E1,1.45E1,-1.2627603E-2,-1.0407049E-2,-1.1168382E-2,1.05E1,6.55E1,6.35E1,3.55E1,6.15E1,1.35E1,-7.5018895E-3,2.65E1,6.907698E-3,3.15E1,3.15E1,6.85E1,6.45E1,2.85E1,2.75E1,2.5E0,-1.1456773E-2,4.55E1,6.95E1,3.45E1,1.05E1,4.75E1,1.15E1,-1.1379782E-2,-2.6651951E-3,-5.5962377E-3,1.35E1,3.05E1,3.25E1,2.95E1,1.45E1,5.75E1,1.35E1,2.7334355E-2,1.55E1,-7.861427E-3,-5.895192E-3,-5.3891167E-3,-2.347052E-3,-1.1853117E-2,-7.253547E-3,-2.588933E-3,1.2091883E-3,-4.976266E-3,-8.424256E-3,8.5430715E-4,-4.7747362E-3,7.785443E-4,4.987466E-3,5.348102E-3,8.048702E-3,-2.6512868E-3,8.003571E-3,-2.8029445E-3,-5.340272E-3,5.991678E-3,3.198901E-3,1.1626555E-2,6.42449E-3,3.6682945E-3,9.331728E-3,1.4427451E-2,2.1790702E-2,1.7264053E-2,1.2039632E-2,-7.4666324E-3,6.807516E-3,5.7247314E-3,1.3228396E-2],"split_indices":[1,0,0,0,1,0,0,0,1,1,0,0,1,1,1,0,0,0,1,0,0,0,0,1,0,0,0,0,0,0,0,0,0,1,0,0,0,0,1,0,1,0,0,0,1,0,0,0,1,0,1,0,1,0,0,0,0,0,0,0,0,0,0,0,0,0,0,0,0,0,0,0,0,0,0,0,0,0,0,0,0,0,0,0,0,0,0],"split_type":[0,0,0,0,0,0,0,0,0,0,0,0,0,0,0,0,0,0,0,0,0,0,0,0,0,0,0,0,0,0,0,0,0,0,0,0,0,0,0,0,0,0,0,0,0,0,0,0,0,0,0,0,0,0,0,0,0,0,0,0,0,0,0,0,0,0,0,0,0,0,0,0,0,0,0,0,0,0,0,0,0,0,0,0,0,0,0],"sum_hessian":[2.3835752E3,1.7776046E3,6.059706E2,7.670239E2,1.01058075E3,8.577048E1,5.202001E2,4.429832E2,3.2404074E2,6.2974207E2,3.8083868E2,5.1493603E1,3.427688E1,1.4749423E2,3.7270587E2,3.2027783E2,1.22705345E2,4.4095222E1,2.7994553E2,1.6573894E2,4.6400308E2,1.2848004E2,2.5235866E2,3.393133E1,1.7562273E1,3.2629448E1,1.6474286E0,1.0625288E2,4.1241364E1,3.146013E2,5.8104584E1,2.3582727E2,4.4118256E1,1.456099E2,2.0129053E1,4.2658035E2,3.742275E1,3.8355145E1,9.012489E1,2.1968372E2,3.2674942E1,3.1760832E1,2.1704974E0,1.676493E1,1.5864518E1,4.6420803E1,5.9832073E1,1.4705084E1,2.6536278E1,3.049732E2,9.628072E0,5.2016045E1,6.0885406E0,7.100288E1,1.648244E2,5.918479E0,3.8199776E1,1.0007265E1,1.3560263E2,2.3210315E2,1.9447719E2,2.268974E1,1.4733007E1,1.9909481E1,1.8445663E1,6.1313858E1,2.8811037E1,1.10343956E2,1.0933976E2,2.9747797E1,2.927145E0,1.38832445E1,1.9812735E0,3.4489407E1,1.19313965E1,1.314948E1,4.6682594E1,6.2870874E0,8.417996E0,1.6716688E1,9.819591E0,2.6657275E2,3.840046E1,6.4784927E0,3.1495788E0,2.8383029E0,3.250238E0],"tree_param":{"num_deleted":"0","num_feature":"2","num_nodes":"87","size_leaf_vector":"0"}},{"base_weights":[-2.5688482E-2,-4.5370176E-1,1.2025311E0,-1.0946108E0,-1.04863614E-1,-5.2772444E-1,1.6156936E0,-1.2144041E0,-8.014869E-1,-8.3034843E-1,3.269996E-2,-8.257951E-1,3.568418E-1,1.4623446E0,2.4692051E0,-1.261366E0,-1.0846144E0,-9.386674E-1,-5.904457E-1,-1.087738E0,-7.742532E-1,-3.8086638E-1,1.6814525E-1,-8.6335236E-1,8.3784074E-1,4.52776E-1,-5.9915733E-1,1.4970856E0,-1.00201E-1,5.0419545E-1,2.5454671E0,-1.1633241E0,-8.622424E-1,-6.9657385E-1,-4.646978E-1,-1.1702151E0,-4.5681402E-1,-9.05451E-1,-6.1266166E-1,-5.0352544E-1,-2.3838821E-1,-3.233873E-2,3.9484385E-1,-1.1502118E0,-6.480343E-1,3.3736652E-1,5.457825E-1,1.0727739E0,1.647022E0,-4.1056308E-1,4.4188905E-1,1.851275E-1,6.956563E-1,2.6280246E0,9.332247E-1,-9.510117E-1,-7.618825E-1,-7.4828887E-1,-3.219668E-1,-5.1205474E-1,-3.4747148E-1,-3.5891175E-2,-6.404835E-1,-5.212996E-1,-1.0845954E0,-5.421572E-1,-4.1188508E-1,-3.1506407E-1,1.6535181E-1,2.0828374E-2,-5.9872985E-1,1.6573946E-1,5.398287E-1,9.614006E-1,1.4716923E0,1.6771853E0,1.0969188E0,1.4141034E-1,-7.7963156E-1,1.2154869E-1,5.451672E-1],"categories":[],"categories_nodes":[],"categories_segments":[],"categories_sizes":[],"default_left":[true,true,true,true,true,true,true,true,true,true,true,true,true,true,true,false,false,true,true,true,true,true,true,true,false,true,false,true,true,true,true,false,true,true,true,false,true,false,true,true,true,true,true,false,false,false,false,true,true,true,true,false,false,false,false,false,false,false,false,false,false,false,false,false,false,false,false,false,false,false,false,false,false,false,false,false,false,false,false,false,false],"id":6,"left_children":[1,3,5,7,9,11,13,15,17,19,21,23,25,27,29,-1,-1,31,33,35,37,39,41,43,-1,45,-1,47,49,51,53,-1,55,57,59,-1,61,-1,63,65,67,69,71,-1,-1,-1,-1,73,75,77,79,-1,-1,-1,-1,-1,-1,-1,-1,-1,-1,-1,-1,-1,-1,-1,-1,-1,-1,-1,-1,-1,-1,-1,-1,-1,-1,-1,-1,-1,-1],"loss_changes":[1.2396023E3,3.9082806E2,4.3648505E2,2.066394E1,1.1314232E2,3.1464245E1,6.0806152E1,1.2863159E0,4.706352E0,1.7667618E0,5.3487217E1,6.2669487E0,3.0679495E0,2.2930908E1,9.731903E0,0E0,0E0,8.5860443E-1,6.6758347E-1,1.0194626E0,2.6641693E0,3.9972954E0,3.269652E1,4.6441727E0,0E0,1.1944771E-1,0E0,2.435492E1,1.8747711E0,1.1515534E-1,6.9329224E0,0E0,3.0647278E-2,5.006256E-1,2.748537E-2,0E0,3.7075174E-1,0E0,2.5014057E0,2.2171593E-1,3.484983E0,1.153237E1,1.1123558E1,0E0,0E0,0E0,0E0,3.4755783E0,3.16333E0,1.519714E0,7.090396E-2,0E0,0E0,0E0,0E0,0E0,0E0,0E0,0E0,0E0,0E0,0E0,0E0,0E0,0E0,0E0,0E0,0E0,0E0,0E0,0E0,0E0,0E0,0E0,0E0,0E0,0E0,0E0,0E0,0E0,0E0],"parents":[2147483647,0,0,1,1,2,2,3,3,4,4,5,5,6,6,7,7,8,8,9,9,10,10,11,11,12,12,13,13,14,14,17,17,18,18,19,19,20,20,21,21,22,22,23,23,25,25,27,27,28,28,29,29,30,30,32,32,33,33,34,34,36,36,38,38,39,39,40,40,41,41,42,42,47,47,48,48,49,49,50,50],"right_children":[2,4,6,8,10,12,14,16,18,20,22,24,26,28,30,-1,-1,32,34,36,38,40,42,44,-1,46,-1,48,50,52,54,-1,56,58,60,-1,62,-1,64,66,68,70,72,-1,-1,-1,-1,74,76,78,80,-1,-1,-1,-1,-1,-1,-1,-1,-1,-1,-1,-1,-1,-1,-1,-1,-1,-1,-1,-1,-1,-1,-1,-1,-1,-1,-1,-1,-1,-1],"split_conditions":[1.25E1,3.05E1,2.95E1,2.65E1,8.5E0,2.75E1,1.45E1,2.35E1,9.5E0,3.55E1,3.65E1,1.45E1,1.45E1,6.75E1,3.15E1,-1.261366E-2,-1.0846144E-2,7.5E0,2.85E1,7.5E0,5.5E0,9.5E0,9.5E0,2.45E1,8.378407E-3,2.85E1,-5.991573E-3,3.65E1,7.65E1,3.05E1,6.75E1,-1.1633241E-2,2.85E1,1.15E1,1.05E1,-1.1702151E-2,3.25E1,-9.05451E-3,6.35E1,3.45E1,3.55E1,6.45E1,4.35E1,-1.1502118E-2,-6.4803427E-3,3.373665E-3,5.457825E-3,1.35E1,6.15E1,7.05E1,7.85E1,1.851275E-3,6.956563E-3,2.6280245E-2,9.332246E-3,-9.510117E-3,-7.6188245E-3,-7.4828886E-3,-3.2196678E-3,-5.1205475E-3,-3.4747147E-3,-3.5891176E-4,-6.404835E-3,-5.2129957E-3,-1.08459545E-2,-5.4215714E-3,-4.118851E-3,-3.1506408E-3,1.6535181E-3,2.0828373E-4,-5.987298E-3,1.6573946E-3,5.398287E-3,9.614006E-3,1.4716923E-2,1.6771853E-2,1.0969188E-2,1.4141033E-3,-7.7963155E-3,1.2154869E-3,5.451672E-3],"split_indices":[1,0,0,0,1,0,1,0,1,0,0,1,1,0,0,0,0,1,0,1,1,1,1,0,0,0,0,0,0,0,0,0,0,1,1,0,0,0,0,0,0,0,0,0,0,0,0,1,0,0,0,0,0,0,0,0,0,0,0,0,0,0,0,0,0,0,0,0,0,0,0,0,0,0,0,0,0,0,0,0,0],"split_type":[0,0,0,0,0,0,0,0,0,0,0,0,0,0,0,0,0,0,0,0,0,0,0,0,0,0,0,0,0,0,0,0,0,0,0,0,0,0,0,0,0,0,0,0,0,0,0,0,0,0,0,0,0,0,0,0,0,0,0,0,0,0,0,0,0,0,0,0,0,0,0,0,0,0,0,0,0,0,0,0,0],"sum_hessian":[2.3559912E3,1.74761E3,6.083813E2,6.1519476E2,1.1324153E3,1.1721735E2,4.9116394E2,4.344866E2,1.8070816E2,1.7969597E2,9.527193E2,8.7723694E1,2.9493652E1,4.1865778E2,7.250617E1,3.1264377E2,1.2184283E2,1.0742938E2,7.327878E1,2.8864069E1,1.508319E2,2.34596E2,7.181233E2,8.625745E1,1.4662517E0,2.7282269E1,2.2113826E0,4.0959296E2,9.064821E0,2.9931946E0,6.951298E1,2.3659338E1,8.377004E1,3.7277786E1,3.600099E1,2.4771118E1,4.09295E0,8.070407E1,7.012782E1,1.24704315E2,1.0989168E2,3.8155093E2,3.365724E2,3.5122826E1,5.1134617E1,1.4239795E1,1.3042474E1,1.0907415E2,3.005188E2,5.91878E0,3.1460416E0,1.8601655E0,1.1330291E0,6.55275E1,3.9854774E0,3.995418E1,4.3815865E1,3.1879278E1,5.398509E0,2.3243162E1,1.2757828E1,1.6065549E0,2.4863951E0,6.0516907E1,9.610913E0,8.426541E1,4.0438908E1,9.253721E1,1.735447E1,3.4968887E2,3.1862051E1,1.3127516E2,2.0529724E2,8.793402E1,2.114013E1,2.8295496E2,1.7563848E1,2.6188745E0,3.299905E0,1.2977343E0,1.8483075E0],"tree_param":{"num_deleted":"0","num_feature":"2","num_nodes":"81","size_leaf_vector":"0"}},{"base_weights":[3.2403525E-2,-3.914299E-1,1.2328192E0,-1.1064439E0,-4.8989594E-2,-6.220845E-1,1.6052907E0,-1.210384E0,-7.517817E-1,-8.0869055E-1,9.279478E-2,-1.0255094E0,-1.5840392E-1,1.3252966E0,2.0332367E0,-1.2484435E0,-1.0381005E0,-8.9186627E-1,-5.349996E-1,-1.0884432E0,-7.400467E-1,-1.04196854E-1,3.183599E-1,-1.0600641E0,-4.9057734E-1,-3.7719932E-1,2.6374224E-1,9.208197E-1,1.4718803E0,7.570792E-1,2.1391866E0,-1.0962694E0,-8.013729E-1,-6.892476E-1,-4.4477242E-1,-8.8223433E-1,-5.616851E-1,-2.7906454E-1,8.645206E-2,4.366169E-1,-3.9555675E-1,5.079916E-2,-7.0546556E-1,-4.3778446E-1,3.334277E-1,7.130588E-1,1.0600263E0,1.531147E0,8.795227E-1,4.7382843E-1,1.0135134E0,2.2295816E0,1.2354822E0,-8.812514E-1,-6.1197627E-1,-5.25616E-1,-9.2960835E-1,-4.898684E-1,-3.422328E-1,-3.1731328E-1,-9.5764464E-1,-8.19286E-1,-4.9634543E-1,-4.0448412E-1,-1.4017633E-1,-2.2039235E-1,2.1024461E-1,2.367045E-1,6.9046324E-1,-4.276772E-1,4.3492097E-1,-5.381108E-1,-3.1312907E-1,1.4085591E0,8.92569E-1,1.4157572E0,1.6445774E0,9.335857E-1,4.6103093E-1,7.2499555E-1,-1.6314204E-1,1.2487206E0,3.8243377E-1,1.9972155E0,2.560262E0,8.493368E-1,2.1094315E0],"categories":[],"categories_nodes":[],"categories_segments":[],"categories_sizes":[],"default_left":[true,true,true,true,true,true,true,true,true,true,true,true,true,true,true,false,false,true,true,false,true,true,true,false,true,true,false,true,true,true,true,false,true,true,true,true,true,true,true,true,true,false,false,true,false,false,true,true,true,true,true,true,true,false,false,false,false,false,false,false,false,false,false,false,false,false,false,false,false,false,false,false,false,false,false,false,false,false,false,false,false,false,false,false,false,false,false],"id":7,"left_children":[1,3,5,7,9,11,13,15,17,19,21,23,25,27,29,-1,-1,31,33,-1,35,37,39,-1,41,43,-1,45,47,49,51,-1,53,55,57,59,61,63,65,67,69,-1,-1,71,-1,-1,73,75,77,79,81,83,85,-1,-1,-1,-1,-1,-1,-1,-1,-1,-1,-1,-1,-1,-1,-1,-1,-1,-1,-1,-1,-1,-1,-1,-1,-1,-1,-1,-1,-1,-1,-1,-1,-1,-1],"loss_changes":[1.2279617E3,4.3671356E2,4.3611993E2,2.0383118E1,1.3010748E2,1.967287E1,6.0182617E1,1.6222534E0,3.5785751E0,2.8425598E0,4.5277813E1,5.2469635E-1,4.7654095E0,1.7622253E1,2.6188904E1,0E0,0E0,5.9438705E-1,4.5784187E-1,0E0,3.4522476E0,1.8170078E1,4.026953E1,0E0,6.513561E-1,1.5961666E0,0E0,1.7838669E0,6.8427124E0,7.7738094E-1,1.2713989E1,0E0,3.5194778E-1,2.3708534E-1,5.630493E-3,3.3113937E0,8.018799E-1,4.8927345E0,9.966584E0,2.0537323E1,2.0003567E0,0E0,0E0,2.2507095E-1,0E0,0E0,1.691742E0,4.295349E-1,1.02767944E-1,1.7349141E0,7.4098015E-1,8.017944E0,4.776022E0,0E0,0E0,0E0,0E0,0E0,0E0,0E0,0E0,0E0,0E0,0E0,0E0,0E0,0E0,0E0,0E0,0E0,0E0,0E0,0E0,0E0,0E0,0E0,0E0,0E0,0E0,0E0,0E0,0E0,0E0,0E0,0E0,0E0,0E0],"parents":[2147483647,0,0,1,1,2,2,3,3,4,4,5,5,6,6,7,7,8,8,9,9,10,10,11,11,12,12,13,13,14,14,17,17,18,18,20,20,21,21,22,22,24,24,25,25,27,27,28,28,29,29,30,30,32,32,33,33,34,34,35,35,36,36,37,37,38,38,39,39,40,40,43,43,46,46,47,47,48,48,49,49,50,50,51,51,52,52],"right_children":[2,4,6,8,10,12,14,16,18,20,22,24,26,28,30,-1,-1,32,34,-1,36,38,40,-1,42,44,-1,46,48,50,52,-1,54,56,58,60,62,64,66,68,70,-1,-1,72,-1,-1,74,76,78,80,82,84,86,-1,-1,-1,-1,-1,-1,-1,-1,-1,-1,-1,-1,-1,-1,-1,-1,-1,-1,-1,-1,-1,-1,-1,-1,-1,-1,-1,-1,-1,-1,-1,-1,-1,-1],"split_conditions":[1.25E1,2.95E1,2.85E1,2.65E1,8.5E0,2.55E1,1.35E1,2.45E1,9.5E0,3.55E1,4.35E1,1.35E1,2.75E1,3.55E1,3.25E1,-1.2484435E-2,-1.0381005E-2,8.5E0,2.75E1,-1.0884431E-2,5.5E0,9.5E0,6.25E1,-1.060064E-2,2.45E1,1.45E1,2.6374224E-3,3.15E1,6.05E1,1.45E1,6.15E1,-1.0962693E-2,2.85E1,1.05E1,1.05E1,4.05E1,3.95E1,3.65E1,3.35E1,9.5E0,1.15E1,5.079916E-4,-7.0546553E-3,2.65E1,3.3342768E-3,7.130588E-3,3.25E1,4.45E1,7.15E1,3.15E1,1.55E1,1.45E1,1.55E1,-8.812514E-3,-6.1197625E-3,-5.2561597E-3,-9.296083E-3,-4.898684E-3,-3.4223278E-3,-3.1731327E-3,-9.576446E-3,-8.19286E-3,-4.9634543E-3,-4.044841E-3,-1.4017632E-3,-2.2039234E-3,2.102446E-3,2.367045E-3,6.9046323E-3,-4.276772E-3,4.3492094E-3,-5.381108E-3,-3.1312907E-3,1.4085591E-2,8.92569E-3,1.4157572E-2,1.6445773E-2,9.335857E-3,4.6103094E-3,7.2499556E-3,-1.6314203E-3,1.2487207E-2,3.8243376E-3,1.9972155E-2,2.5602618E-2,8.493368E-3,2.1094315E-2],"split_indices":[1,0,0,0,1,0,1,0,1,0,0,1,0,0,0,0,0,1,0,0,1,1,0,0,0,1,0,0,0,1,0,0,0,1,1,0,0,0,0,1,1,0,0,0,0,0,0,0,0,0,1,1,1,0,0,0,0,0,0,0,0,0,0,0,0,0,0,0,0,0,0,0,0,0,0,0,0,0,0,0,0,0,0,0,0,0,0],"split_type":[0,0,0,0,0,0,0,0,0,0,0,0,0,0,0,0,0,0,0,0,0,0,0,0,0,0,0,0,0,0,0,0,0,0,0,0,0,0,0,0,0,0,0,0,0,0,0,0,0,0,0,0,0,0,0,0,0,0,0,0,0,0,0,0,0,0,0,0,0,0,0,0,0,0,0,0,0,0,0,0,0,0,0,0,0,0,0],"sum_hessian":[2.4116108E3,1.7828203E3,6.2879047E2,5.7661646E2,1.2062039E3,1.0503703E2,5.237534E2,4.4406302E2,1.3255347E2,1.889703E2,1.0172336E3,5.5520123E1,4.9516914E1,3.1908276E2,2.0467065E2,3.5859808E2,8.546493E1,7.862918E1,5.3924282E1,3.4305344E1,1.5466496E2,5.4329694E2,4.7393665E2,5.1229225E1,4.2908983E0,3.2683666E1,1.6833246E1,8.681393E1,2.3226883E2,1.6314096E1,1.8835657E2,2.0717934E1,5.7911243E1,1.7451319E1,3.6472965E1,8.386359E1,7.080138E1,2.8313504E2,2.601619E2,4.069206E2,6.701608E1,1.4362069E0,2.8546913E0,3.0469877E1,2.21379E0,3.728689E1,4.9527035E1,2.0970276E2,2.2566069E1,9.104859E0,7.209236E0,1.6989525E2,1.8461317E1,3.8162975E1,1.9748268E1,1.2278915E1,5.172404E0,2.2708582E1,1.3764383E1,1.0489723E1,7.337386E1,1.19904175E1,5.881096E1,1.4777667E2,1.3535837E2,7.456281E1,1.8559908E2,2.2872476E2,1.7819582E2,6.498757E1,2.0285072E0,1.5044686E1,1.5425191E1,1.3668018E1,3.5859016E1,1.1063641E2,9.9066345E1,1.889436E1,3.6717103E0,6.4308743E0,2.6739852E0,4.5388684E0,2.6703677E0,1.039149E2,6.598035E1,1.4171585E1,4.289731E0],"tree_param":{"num_deleted":"0","num_feature":"2","num_nodes":"87","size_leaf_vector":"0"}},{"base_weights":[1.261608E-3,-4.1735855E-1,1.1770687E0,-8.956853E-1,2.464052E-2,-6.1190534E-1,1.5318165E0,-1.1535323E0,-5.554144E-1,-7.908138E-1,1.8879122E-1,-1.070062E0,-1.0074503E-1,1.4016342E0,2.2891624E0,-1.2510928E0,-9.628936E-1,-1.0878265E0,-4.6919006E-1,-8.169842E-1,-3.835128E-1,-4.135451E-2,4.5770162E-1,-2.966133E-1,2.5286263E-1,7.5430965E-1,1.497915E0,4.2278767E-1,2.4284396E0,-5.20529E-1,-1.9857164E-1,-5.8412325E-1,-8.567124E-1,-1.24969825E-1,-5.863551E-1,8.580466E-3,-4.4468135E-1,5.231483E-1,-1.9026275E-1,-4.1017208E-1,-1.7933263E-1,3.8553333E-1,-7.773483E-1,5.0943327E-1,8.091803E-1,1.530304E0,-1.2308514E-1,8.819891E-1,4.3989986E-2,2.604415E0,1.1697423E0,-7.2760695E-1,-3.9402696E-1,-6.626084E-2,-6.313464E-1,-6.4562327E-1,-3.1034535E-1,-8.0741936E-1,-1.0468818E0,-6.100376E-1,8.747841E-1,-8.0131435E-1,6.2218264E-2,-2.1577694E-1,1.3742942E-1,-3.124845E-1,-8.2528687E-1,3.9513233E-1,9.647375E-1,-3.0918357E-1,1.0929568E0,-4.881088E-1,6.3522615E-2,-8.839108E-2,-5.788721E-1,1.9768298E-1,9.2696005E-1,5.502206E-1,1.653182E-1,1.0283002E0,6.651879E-1,1.579006E0,1.1016986E0,-4.316721E-1,4.212949E-1,-4.6302718E-1,4.976592E-1,1.3849096E0,1.4268412E-1],"categories":[],"categories_nodes":[],"categories_segments":[],"categories_sizes":[],"default_left":[true,true,true,true,true,true,true,true,true,true,true,false,true,true,true,false,false,false,true,true,true,true,true,true,true,true,true,true,true,true,true,true,true,true,true,true,true,true,true,true,true,true,false,true,true,true,true,false,true,false,true,false,false,false,false,false,false,false,false,false,false,false,false,false,false,false,false,false,false,false,false,false,false,false,false,false,false,false,false,false,false,false,false,false,false,false,false,false,false],"id":8,"left_children":[1,3,5,7,9,11,13,15,17,19,21,-1,23,25,27,-1,-1,-1,29,31,33,35,37,39,41,43,45,47,49,51,53,55,57,59,61,63,65,67,69,71,73,75,-1,77,79,81,83,-1,85,-1,87,-1,-1,-1,-1,-1,-1,-1,-1,-1,-1,-1,-1,-1,-1,-1,-1,-1,-1,-1,-1,-1,-1,-1,-1,-1,-1,-1,-1,-1,-1,-1,-1,-1,-1,-1,-1,-1,-1],"loss_changes":[1.1788103E3,3.734146E2,3.9998676E2,7.378113E1,1.2314934E2,2.4427849E1,4.8554565E1,7.7530518E0,1.6364853E1,1.3300018E0,4.740821E1,0E0,3.5811946E0,2.6953064E1,1.8580902E1,0E0,0E0,0E0,4.3163757E0,8.315277E-1,5.136994E-1,8.332073E0,1.5077881E1,3.6645198E-1,2.839892E0,3.987503E-1,2.0729004E1,1.0829443E0,1.2454376E1,6.7017365E0,2.9554234E0,2.0586205E-1,2.8757477E-1,3.536221E0,8.8650084E-1,1.0695069E1,2.0352182E0,1.7768936E1,5.3944345E0,6.220119E-1,6.0393256E-1,1.5593352E0,0E0,1.0200024E-1,8.1809044E-1,6.2685547E0,1.62481E0,0E0,1.2853612E0,0E0,2.1005E0,0E0,0E0,0E0,0E0,0E0,0E0,0E0,0E0,0E0,0E0,0E0,0E0,0E0,0E0,0E0,0E0,0E0,0E0,0E0,0E0,0E0,0E0,0E0,0E0,0E0,0E0,0E0,0E0,0E0,0E0,0E0,0E0,0E0,0E0,0E0,0E0,0E0,0E0],"parents":[2147483647,0,0,1,1,2,2,3,3,4,4,5,5,6,6,7,7,8,8,9,9,10,10,12,12,13,13,14,14,18,18,19,19,20,20,21,21,22,22,23,23,24,24,25,25,26,26,27,27,28,28,29,29,30,30,31,31,32,32,33,33,34,34,35,35,36,36,37,37,38,38,39,39,40,40,41,41,43,43,44,44,45,45,46,46,48,48,50,50],"right_children":[2,4,6,8,10,12,14,16,18,20,22,-1,24,26,28,-1,-1,-1,30,32,34,36,38,40,42,44,46,48,50,52,54,56,58,60,62,64,66,68,70,72,74,76,-1,78,80,82,84,-1,86,-1,88,-1,-1,-1,-1,-1,-1,-1,-1,-1,-1,-1,-1,-1,-1,-1,-1,-1,-1,-1,-1,-1,-1,-1,-1,-1,-1,-1,-1,-1,-1,-1,-1,-1,-1,-1,-1,-1,-1],"split_conditions":[1.25E1,3.55E1,2.85E1,2.75E1,8.5E0,2.55E1,1.45E1,2.35E1,8.5E0,7.5E0,9.5E0,-1.070062E-2,2.75E1,3.25E1,3.15E1,-1.2510927E-2,-9.628936E-3,-1.0878265E-2,1.05E1,4.05E1,5E1,6.15E1,6.15E1,2.65E1,1.45E1,2.95E1,6.85E1,2.95E1,6.15E1,3.05E1,3.35E1,3.95E1,6.55E1,4.45E1,6.2E1,4.25E1,7.15E1,5.15E1,1.15E1,1.35E1,1.35E1,1.35E1,-7.7734827E-3,1.35E1,3.05E1,5.75E1,1.35E1,8.819891E-3,3.05E1,2.6044149E-2,7.45E1,-7.2760694E-3,-3.9402694E-3,-6.6260836E-4,-6.3134637E-3,-6.4562326E-3,-3.1034534E-3,-8.074193E-3,-1.0468817E-2,-6.100376E-3,8.747841E-3,-8.013143E-3,6.221826E-4,-2.1577694E-3,1.3742942E-3,-3.124845E-3,-8.252868E-3,3.951323E-3,9.647375E-3,-3.0918356E-3,1.0929568E-2,-4.881088E-3,6.3522614E-4,-8.839108E-4,-5.7887207E-3,1.9768297E-3,9.269601E-3,5.502206E-3,1.653182E-3,1.0283002E-2,6.651879E-3,1.5790058E-2,1.1016986E-2,-4.3167206E-3,4.212949E-3,-4.630272E-3,4.976592E-3,1.3849096E-2,1.4268411E-3],"split_indices":[1,0,0,0,1,0,1,0,1,1,1,0,0,0,0,0,0,0,1,0,0,0,0,0,1,0,0,0,0,0,0,0,0,0,0,0,0,0,1,1,1,1,0,1,0,0,1,0,0,0,0,0,0,0,0,0,0,0,0,0,0,0,0,0,0,0,0,0,0,0,0,0,0,0,0,0,0,0,0,0,0,0,0,0,0,0,0,0,0],"split_type":[0,0,0,0,0,0,0,0,0,0,0,0,0,0,0,0,0,0,0,0,0,0,0,0,0,0,0,0,0,0,0,0,0,0,0,0,0,0,0,0,0,0,0,0,0,0,0,0,0,0,0,0,0,0,0,0,0,0,0,0,0,0,0,0,0,0,0,0,0,0,0,0,0,0,0,0,0,0,0,0,0,0,0,0,0,0,0,0,0],"sum_hessian":[2.3929036E3,1.7651176E3,6.277861E2,8.472289E2,9.178886E2,1.0376746E2,5.240186E2,4.8063116E2,3.6659772E2,1.5316928E2,7.6471936E2,5.414422E1,4.962325E1,4.4958838E2,7.443025E1,3.1424954E2,1.6638164E2,4.9476612E1,3.171211E2,1.4297673E2,1.0192551E1,4.125158E2,3.5220355E2,3.2038082E1,1.7585167E1,5.935587E1,3.902325E2,5.448857E0,6.89814E1,2.657771E2,5.1343983E1,2.3126616E1,1.1985011E2,5.1915236E0,5.001027E0,3.6794064E2,4.4575165E1,3.2006815E2,3.213539E1,1.5008511E1,1.7029572E1,1.6133291E1,1.451875E0,1.2748073E1,4.6607796E1,3.8264294E2,7.589564E0,1.8625592E0,3.5862975E0,5.958223E1,9.399168E0,9.898747E1,1.6678964E2,4.020527E1,1.1138717E1,1.7775434E1,5.351181E0,9.934506E1,2.0505049E1,3.7580016E0,1.433522E0,3.5792418E0,1.4217855E0,1.3397787E2,2.3396277E2,3.4435574E1,1.0139592E1,2.4960335E2,7.04648E1,3.0104544E1,2.0308456E0,1.2861917E1,2.1465943E0,1.4866868E1,2.1627038E0,1.2991092E1,3.1422E0,1.086171E1,1.8863636E0,1.6046991E1,3.0560804E1,3.4118985E2,4.1453102E1,4.975943E0,2.613621E0,1.6838324E0,1.9024651E0,7.4830546E0,1.916113E0],"tree_param":{"num_deleted":"0","num_feature":"2","num_nodes":"89","size_leaf_vector":"0"}},{"base_weights":[-1.3140367E-3,-4.052765E-1,1.1554133E0,-1.0899664E0,-8.283829E-2,-3.0153102E-1,1.6134487E0,-1.2248502E0,-7.790777E-1,-8.480096E-1,6.424675E-2,-7.6126575E-1,3.4512046E-1,1.4770706E0,2.334857E0,-1.2569139E0,-1.0809178E0,-9.048257E-1,-5.9245104E-1,-1.0925722E0,-7.84684E-1,-3.2263392E-1,1.8550825E-1,-1.0629424E0,-5.27058E-1,2.1043637E-1,7.78597E-1,1.5289706E0,7.492235E-1,2.3899643E0,9.610712E-1,-6.91807E-1,-2.6619452E-1,-7.149398E-1,-1.0029652E0,-4.4098872E-1,-1.8090913E-1,2.4355152E-1,-3.350668E-1,-5.6138825E-1,3.067551E-1,-9.643173E-4,2.8589168E-1,1.1467881E0,2.4958761E-1,1.2789844E0,1.7269385E0,8.833959E-1,1.4583136E-1,-7.5128704E-1,-5.137404E-1,-3.6225915E-1,-7.750541E-2,-4.631761E-1,-7.4875605E-1,-1.0450851E0,-1.8690747E-1,-5.0848466E-1,-3.1843907E-1,-2.9885694E-1,-5.626417E-2,9.20181E-2,4.4403175E-1,-5.2704847E-1,-6.0577232E-2,-5.106713E-1,-8.069385E-1,5.2662706E-1,1.8086645E-1,-6.8171847E-1,5.277271E-1,1.1725564E0,1.5635304E0,1.7912388E0,1.3416631E0,3.545099E-1,9.9186707E-1,-3.7742132E-1,3.8000134E-1],"categories":[],"categories_nodes":[],"categories_segments":[],"categories_sizes":[],"default_left":[true,true,true,true,true,true,true,true,true,true,true,true,true,true,true,false,false,false,true,false,true,true,true,false,true,true,true,true,true,false,false,true,true,true,true,true,true,true,true,true,false,false,true,false,true,true,true,true,true,false,false,false,false,false,false,false,false,false,false,false,false,false,false,false,false,false,false,false,false,false,false,false,false,false,false,false,false,false,false],"id":9,"left_children":[1,3,5,7,9,11,13,15,17,19,21,23,25,27,29,-1,-1,-1,31,-1,33,35,37,-1,39,41,43,45,47,-1,-1,49,51,53,55,57,59,61,63,65,-1,-1,67,-1,69,71,73,75,77,-1,-1,-1,-1,-1,-1,-1,-1,-1,-1,-1,-1,-1,-1,-1,-1,-1,-1,-1,-1,-1,-1,-1,-1,-1,-1,-1,-1,-1,-1],"loss_changes":[1.108997E3,3.8825018E2,4.1043097E2,2.2657898E1,1.3476498E2,4.4194508E1,4.2548706E1,4.4561768E-1,3.526863E0,2.132553E0,4.720293E1,5.5643044E0,3.4612808E0,1.3810364E1,3.2000732E0,0E0,0E0,0E0,2.1688805E0,0E0,1.6715317E0,3.9487648E0,2.321851E1,0E0,1.6258268E0,7.7780414E-1,2.508603E0,1.6033325E1,2.163371E0,0E0,0E0,1.9676018E-1,3.0854654E-1,6.9516754E-1,1.0252266E0,9.148693E-1,1.6149082E0,2.090538E1,4.03802E0,1.9972038E-1,0E0,0E0,8.130667E-1,0E0,2.21616E0,3.2166748E0,2.6220093E0,9.658451E-1,9.212727E-1,0E0,0E0,0E0,0E0,0E0,0E0,0E0,0E0,0E0,0E0,0E0,0E0,0E0,0E0,0E0,0E0,0E0,0E0,0E0,0E0,0E0,0E0,0E0,0E0,0E0,0E0,0E0,0E0,0E0,0E0],"parents":[2147483647,0,0,1,1,2,2,3,3,4,4,5,5,6,6,7,7,8,8,9,9,10,10,11,11,12,12,13,13,14,14,18,18,20,20,21,21,22,22,24,24,25,25,26,26,27,27,28,28,31,31,32,32,33,33,34,34,35,35,36,36,37,37,38,38,39,39,42,42,44,44,45,45,46,46,47,47,48,48],"right_children":[2,4,6,8,10,12,14,16,18,20,22,24,26,28,30,-1,-1,-1,32,-1,34,36,38,-1,40,42,44,46,48,-1,-1,50,52,54,56,58,60,62,64,66,-1,-1,68,-1,70,72,74,76,78,-1,-1,-1,-1,-1,-1,-1,-1,-1,-1,-1,-1,-1,-1,-1,-1,-1,-1,-1,-1,-1,-1,-1,-1,-1,-1,-1,-1,-1,-1],"split_conditions":[1.25E1,2.95E1,3.15E1,2.55E1,8.5E0,2.75E1,1.45E1,2.35E1,9.5E0,3.55E1,3.55E1,2.45E1,1.35E1,6.15E1,6.85E1,-1.2569139E-2,-1.0809178E-2,-9.048257E-3,2.85E1,-1.0925722E-2,6.05E1,9.5E0,6.15E1,-1.0629424E-2,1.45E1,2.85E1,1.45E1,4.15E1,7.15E1,2.3899643E-2,9.610712E-3,1.05E1,1.05E1,3.85E1,7.5E0,3.35E1,3.25E1,4.65E1,9.5E0,1.35E1,3.067551E-3,-9.643173E-6,2.95E1,1.1467881E-2,2.85E1,1.35E1,5.55E1,6.25E1,7.45E1,-7.5128702E-3,-5.137404E-3,-3.6225915E-3,-7.750541E-4,-4.631761E-3,-7.48756E-3,-1.045085E-2,-1.8690747E-3,-5.0848466E-3,-3.1843905E-3,-2.9885694E-3,-5.626417E-4,9.2018093E-4,4.4403174E-3,-5.2704844E-3,-6.057723E-4,-5.106713E-3,-8.069385E-3,5.2662706E-3,1.8086644E-3,-6.8171844E-3,5.2772714E-3,1.1725564E-2,1.5635304E-2,1.7912388E-2,1.3416631E-2,3.5450987E-3,9.91867E-3,-3.7742131E-3,3.8000133E-3],"split_indices":[1,0,0,0,1,0,1,0,1,0,0,0,1,0,0,0,0,0,0,0,0,1,0,0,1,0,1,0,0,0,0,1,1,0,1,0,0,0,1,1,0,0,0,0,0,1,0,0,0,0,0,0,0,0,0,0,0,0,0,0,0,0,0,0,0,0,0,0,0,0,0,0,0,0,0,0,0,0,0],"split_type":[0,0,0,0,0,0,0,0,0,0,0,0,0,0,0,0,0,0,0,0,0,0,0,0,0,0,0,0,0,0,0,0,0,0,0,0,0,0,0,0,0,0,0,0,0,0,0,0,0,0,0,0,0,0,0,0,0,0,0,0,0,0,0,0,0,0,0,0,0,0,0,0,0,0,0,0,0,0,0],"sum_hessian":[2.371329E3,1.7580256E3,6.133035E2,5.620805E2,1.1959452E3,1.4677507E2,4.6652844E2,3.8995358E2,1.7212692E2,1.9205646E2,1.00388873E3,8.568229E1,6.1092785E1,3.9491876E2,7.16097E1,3.1258618E2,7.73674E1,1.0053722E2,7.1589714E1,3.61587E1,1.5589777E2,2.3916867E2,7.6472003E2,3.5900875E1,4.978141E1,4.7743896E1,1.3348888E1,3.6760553E2,2.7313206E1,6.81368E1,3.472898E0,5.4018764E1,1.7570953E1,1.2138779E2,3.4509975E1,1.2917915E2,1.0998951E2,6.88487E2,7.623303E1,4.8126633E1,1.654776E0,1.2818351E1,3.4925545E1,7.182239E0,6.1666493E0,1.6575597E2,2.0184958E2,2.1964952E1,5.348254E0,3.807975E1,1.5939014E1,1.1033666E1,6.537287E0,1.6114134E1,1.0527365E2,3.2549324E1,1.9606498E0,8.126959E1,4.7909565E1,5.579484E1,5.4194664E1,3.929408E2,2.9554623E2,4.4317017E1,3.1916018E1,4.244051E1,5.686123E0,9.389332E0,2.5536213E1,1.084472E0,5.082177E0,1.2436198E2,4.1393997E1,1.6985283E2,3.1996742E1,4.464599E0,1.7500353E1,1.4643729E0,3.8838813E0],"tree_param":{"num_deleted":"0","num_feature":"2","num_nodes":"79","size_leaf_vector":"0"}},{"base_weights":[1.4155503E-2,-3.9563668E-1,1.1065576E0,-1.1197782E0,-9.777388E-2,-7.456899E-1,1.4590577E0,-1.2455373E0,-9.340244E-1,-8.0517006E-1,3.664602E-2,-1.0594552E0,-4.0879646E-1,1.319824E0,2.2312858E0,-1.037263E0,-7.8280294E-1,-1.0859091E0,-7.1475255E-1,-3.7569335E-1,1.8596429E-1,-5.9053445E-1,-1.0120186E-1,8.7658024E-1,1.4790182E0,-1.4046027E-1,2.363688E0,-8.267165E-1,-5.9228265E-1,-1.1308492E0,-6.565397E-1,-8.836616E-1,-5.118007E-1,-5.216738E-1,-2.0979929E-1,-4.9887646E-2,4.6405458E-1,-6.280794E-1,2.5266394E-1,-2.279652E-2,-7.295389E-1,6.580702E-1,9.823098E-1,1.5134751E0,1.9171411E-1,-4.6014795E-1,4.0466473E-1,2.402469E0,6.6864604E-1,-7.366627E-1,-9.959655E-1,-1.06360815E-1,-9.7909015E-1,-4.0429404E-1,-9.091983E-1,-1.7650096E-2,-5.720449E-1,-7.416059E-1,-4.2382035E-1,-2.9065016E-1,-2.1526393E-2,3.7221078E-2,-6.067392E-1,5.353993E-1,-2.968249E-1,-8.9234844E-2,2.5641248E-1,5.7360387E-1,9.7353345E-1,1.3405432E0,1.6484329E0,-2.3796347E-1,6.288611E-1,1.0500871E-1,-7.9970926E-1,1.0699018E0,2.4631596E0],"categories":[],"categories_nodes":[],"categories_segments":[],"categories_sizes":[],"default_left":[true,true,true,true,true,true,true,false,true,true,true,false,true,true,true,false,true,true,true,true,true,true,true,true,true,true,true,true,false,false,true,true,true,true,true,true,true,false,false,true,false,true,false,true,true,true,false,true,false,false,false,false,false,false,false,false,false,false,false,false,false,false,false,false,false,false,false,false,false,false,false,false,false,false,false,false,false],"id":10,"left_children":[1,3,5,7,9,11,13,-1,15,17,19,-1,21,23,25,-1,27,29,31,33,35,37,39,41,43,45,47,49,-1,-1,51,53,55,57,59,61,63,-1,-1,65,-1,67,-1,69,71,73,-1,75,-1,-1,-1,-1,-1,-1,-1,-1,-1,-1,-1,-1,-1,-1,-1,-1,-1,-1,-1,-1,-1,-1,-1,-1,-1,-1,-1,-1,-1],"loss_changes":[1.0738596E3,3.761641E2,4.2835052E2,1.0711365E1,1.17667015E2,1.0696323E1,5.6202393E1,0E0,2.454239E0,4.23938E0,6.4136536E1,0E0,2.8695145E0,3.1763E1,2.6265656E1,0E0,2.5460434E-1,1.4919662E-1,4.77137E0,6.5979004E0,5.017107E1,1.1949224E0,1.0015965E0,2.2705688E0,1.4935486E1,1.1116531E0,3.5390015E0,3.2967758E-1,0E0,0E0,1.0959246E0,6.3362503E-1,2.1211529E0,2.8418121E0,1.9925928E0,2.0134207E1,1.9211357E1,0E0,0E0,3.8289732E-1,0E0,6.193676E-1,0E0,5.5891113E0,2.0455058E0,8.161514E-1,0E0,3.5223083E0,0E0,0E0,0E0,0E0,0E0,0E0,0E0,0E0,0E0,0E0,0E0,0E0,0E0,0E0,0E0,0E0,0E0,0E0,0E0,0E0,0E0,0E0,0E0,0E0,0E0,0E0,0E0,0E0,0E0],"parents":[2147483647,0,0,1,1,2,2,3,3,4,4,5,5,6,6,8,8,9,9,10,10,12,12,13,13,14,14,16,16,17,17,18,18,19,19,20,20,21,21,22,22,23,23,24,24,25,25,26,26,27,27,30,30,31,31,32,32,33,33,34,34,35,35,36,36,39,39,41,41,43,43,44,44,45,45,47,47],"right_children":[2,4,6,8,10,12,14,-1,16,18,20,-1,22,24,26,-1,28,30,32,34,36,38,40,42,44,46,48,50,-1,-1,52,54,56,58,60,62,64,-1,-1,66,-1,68,-1,70,72,74,-1,76,-1,-1,-1,-1,-1,-1,-1,-1,-1,-1,-1,-1,-1,-1,-1,-1,-1,-1,-1,-1,-1,-1,-1,-1,-1,-1,-1,-1,-1],"split_conditions":[1.25E1,2.85E1,2.85E1,2.35E1,8.5E0,2.55E1,1.45E1,-1.2455372E-2,9.5E0,3.65E1,3.55E1,-1.0594551E-2,2.75E1,3.65E1,3.05E1,-1.037263E-2,2.75E1,7.5E0,5.5E0,9.5E0,9.5E0,1.45E1,1.45E1,3.15E1,6.85E1,1.55E1,7.05E1,1.05E1,-5.9228265E-3,-1.1308492E-2,3.25E1,3.85E1,3.85E1,3.05E1,1.05E1,6.05E1,6.15E1,-6.280794E-3,2.5266393E-3,1.35E1,-7.295389E-3,1.35E1,9.823098E-3,4.45E1,7.55E1,2.95E1,4.0466473E-3,3.25E1,6.68646E-3,-7.3666265E-3,-9.959655E-3,-1.0636081E-3,-9.790901E-3,-4.04294E-3,-9.091983E-3,-1.7650095E-4,-5.720449E-3,-7.416059E-3,-4.238203E-3,-2.9065015E-3,-2.1526392E-4,3.7221078E-4,-6.067392E-3,5.3539933E-3,-2.968249E-3,-8.923484E-4,2.5641248E-3,5.7360386E-3,9.735335E-3,1.3405431E-2,1.6484328E-2,-2.3796347E-3,6.2886113E-3,1.050087E-3,-7.997093E-3,1.0699018E-2,2.4631595E-2],"split_indices":[1,0,0,0,1,0,1,0,1,0,0,0,0,0,0,0,0,1,1,1,1,1,1,0,0,1,0,1,0,0,0,0,0,0,1,0,0,0,0,1,0,1,0,0,0,0,0,0,0,0,0,0,0,0,0,0,0,0,0,0,0,0,0,0,0,0,0,0,0,0,0,0,0,0,0,0,0],"split_type":[0,0,0,0,0,0,0,0,0,0,0,0,0,0,0,0,0,0,0,0,0,0,0,0,0,0,0,0,0,0,0,0,0,0,0,0,0,0,0,0,0,0,0,0,0,0,0,0,0,0,0,0,0,0,0,0,0,0,0,0,0,0,0,0,0,0,0,0,0,0,0,0,0,0,0,0,0],"sum_hessian":[2.396862E3,1.7434722E3,6.533899E2,5.0733014E2,1.236142E3,1.04287125E2,5.491028E2,2.9911676E2,2.0821338E2,1.9658846E2,1.0395536E3,5.288654E1,5.1400585E1,4.6751776E2,8.1584984E1,1.2025571E2,8.7957664E1,4.5208813E1,1.5137965E2,2.7596518E2,7.635884E2,3.1732204E1,1.966838E1,1.2526094E2,3.4225684E2,4.310431E0,7.727456E1,6.876791E1,1.9189762E1,3.94464E1,5.7624164E0,8.078846E1,7.059119E1,1.4565219E2,1.3031299E2,4.13616E2,3.4997238E2,3.0623749E1,1.108455E0,1.8407705E1,1.2606752E0,4.3201347E1,8.205959E1,3.3316345E2,9.093365E0,2.8152926E0,1.4951385E0,7.5138115E1,2.1364439E0,4.8379E1,2.0388905E1,2.621181E0,3.1412356E0,4.937366E0,7.58511E1,7.81141E0,6.2779778E1,4.282391E1,1.0282828E2,9.0783615E1,3.9529373E1,3.5847293E2,5.5143044E1,3.2024097E2,2.9731413E1,1.5419101E1,2.9886038E0,3.6300148E1,6.9012E0,1.5082837E2,1.823351E2,4.8156466E0,4.277718E0,1.3158985E0,1.499394E0,4.084509E0,7.1053604E1],"tree_param":{"num_deleted":"0","num_feature":"2","num_nodes":"77","size_leaf_vector":"0"}},{"base_weights":[-1.107472E-2,-4.0060815E-1,1.0824E0,-1.0535067E0,-5.683799E-2,-5.8079845E-1,1.40137E0,-1.2128141E0,-7.596808E-1,-8.157408E-1,7.4568674E-2,-1.0977348E0,-7.6587684E-2,1.2566291E0,2.1742637E0,-1.2461449E0,-1.0747887E0,-9.236655E-1,-5.280339E-1,-9.029317E-1,-6.964819E-1,-3.8780606E-1,1.9626856E-1,-1.1876034E0,-8.3002585E-1,-2.5581777E-1,2.655949E-1,1.0924102E0,1.512025E0,1.5783817E0,2.342114E0,-7.52564E-1,-3.7598914E-1,-9.773045E-1,-6.0383826E-1,-4.6042764E-1,-3.002091E-1,-4.700054E-3,4.3791455E-1,-1.2123814E0,-4.0963644E-1,-2.0807822E-1,-4.432387E-1,3.8054258E-1,-7.270434E-1,8.9708745E-1,1.2105815E0,1.6011708E0,8.1618315E-1,2.0232708E0,5.1612633E-1,2.475365E0,1.3669969E0,-6.211511E-1,-1.0501294E0,-5.355442E-1,9.340704E-4,-4.446937E-1,-1.1107899E0,-5.165201E-1,-1.1213528E0,-8.139817E-1,-4.39983E-1,-4.5048848E-1,-2.0337622E-1,5.321596E-2,-5.652989E-1,4.9994266E-1,-1.794375E-1,-2.899477E-1,-1.14021555E-1,2.8277734E-1,7.393267E-1,5.875957E-1,9.250521E-1,1.1172954E0,1.4101837E0,1.4732336E0,1.79536E0,5.121741E-1,1.3504533E0,6.358946E-1,1.0448405E-1,6.3775325E-1,1.8068291E0],"categories":[],"categories_nodes":[],"categories_segments":[],"categories_sizes":[],"default_left":[true,true,true,true,true,true,true,true,true,true,true,true,true,true,true,false,false,false,true,false,true,true,true,true,false,true,true,true,true,true,true,true,true,true,true,true,true,true,true,false,false,true,false,true,false,true,true,true,true,false,true,false,true,false,false,false,false,false,false,false,false,false,false,false,false,false,false,false,false,false,false,false,false,false,false,false,false,false,false,false,false,false,false,false,false],"id":11,"left_children":[1,3,5,7,9,11,13,15,17,19,21,23,25,27,29,-1,-1,-1,31,-1,33,35,37,39,-1,41,43,45,47,49,51,53,55,57,59,61,63,65,67,-1,-1,69,-1,71,-1,73,75,77,79,-1,81,-1,83,-1,-1,-1,-1,-1,-1,-1,-1,-1,-1,-1,-1,-1,-1,-1,-1,-1,-1,-1,-1,-1,-1,-1,-1,-1,-1,-1,-1,-1,-1,-1,-1],"loss_changes":[1.01010297E3,3.9239172E2,3.3126672E2,2.7306274E1,1.1439373E2,2.6226257E1,5.577014E1,4.519043E-1,7.667511E0,1.1315613E0,5.511937E1,2.1160126E-1,3.2678418E0,1.6921143E1,4.416504E0,0E0,0E0,0E0,2.834589E0,0E0,1.3838654E0,1.1604843E0,3.763998E1,1.76857E-1,0E0,2.1869493E-1,2.3790393E0,5.2183228E0,9.282074E0,8.830093E0,4.571228E0,7.5047493E-1,3.3952494E0,7.2924614E-1,2.117197E0,4.3512344E-1,1.2967806E0,1.3800175E1,1.3565514E1,0E0,0E0,1.9471991E-1,0E0,3.9318728E-1,0E0,3.8093567E-1,1.5398102E0,1.0885315E0,2.7882977E0,0E0,3.0382347E-1,0E0,1.9248314E0,0E0,0E0,0E0,0E0,0E0,0E0,0E0,0E0,0E0,0E0,0E0,0E0,0E0,0E0,0E0,0E0,0E0,0E0,0E0,0E0,0E0,0E0,0E0,0E0,0E0,0E0,0E0,0E0,0E0,0E0,0E0,0E0],"parents":[2147483647,0,0,1,1,2,2,3,3,4,4,5,5,6,6,7,7,8,8,9,9,10,10,11,11,12,12,13,13,14,14,18,18,20,20,21,21,22,22,23,23,25,25,26,26,27,27,28,28,29,29,30,30,31,31,32,32,33,33,34,34,35,35,36,36,37,37,38,38,41,41,43,43,45,45,46,46,47,47,48,48,50,50,52,52],"right_children":[2,4,6,8,10,12,14,16,18,20,22,24,26,28,30,-1,-1,-1,32,-1,34,36,38,40,-1,42,44,46,48,50,52,54,56,58,60,62,64,66,68,-1,-1,70,-1,72,-1,74,76,78,80,-1,82,-1,84,-1,-1,-1,-1,-1,-1,-1,-1,-1,-1,-1,-1,-1,-1,-1,-1,-1,-1,-1,-1,-1,-1,-1,-1,-1,-1,-1,-1,-1,-1,-1,-1],"split_conditions":[1.25E1,3.05E1,2.85E1,2.55E1,7.5E0,2.55E1,1.45E1,2.35E1,9.5E0,5.5E0,3.55E1,2.45E1,2.75E1,4.55E1,3.85E1,-1.2461449E-2,-1.0747886E-2,-9.236655E-3,2.75E1,-9.029317E-3,3.65E1,9.5E0,9.5E0,1.35E1,-8.300259E-3,1.35E1,1.45E1,3.55E1,6.35E1,1.55E1,6.15E1,1.05E1,1.05E1,3.25E1,6.55E1,8.5E0,3.25E1,6.25E1,6.15E1,-1.2123813E-2,-4.096364E-3,2.65E1,-4.432387E-3,1.35E1,-7.270434E-3,2.95E1,1.35E1,1.35E1,1.35E1,2.0232707E-2,3.55E1,2.4753649E-2,1.55E1,-6.211511E-3,-1.0501293E-2,-5.355442E-3,9.340703E-6,-4.4469372E-3,-1.1107898E-2,-5.1652007E-3,-1.1213528E-2,-8.139817E-3,-4.39983E-3,-4.5048846E-3,-2.0337622E-3,5.321596E-4,-5.652989E-3,4.9994267E-3,-1.794375E-3,-2.8994768E-3,-1.1402156E-3,2.8277733E-3,7.393267E-3,5.8759567E-3,9.250521E-3,1.1172954E-2,1.4101837E-2,1.4732336E-2,1.7953599E-2,5.121741E-3,1.3504532E-2,6.3589457E-3,1.0448404E-3,6.377532E-3,1.8068291E-2],"split_indices":[1,0,0,0,1,0,1,0,1,1,0,0,0,0,0,0,0,0,0,0,0,1,1,1,0,1,1,0,0,1,0,1,1,0,0,1,0,0,0,0,0,0,0,1,0,0,1,1,1,0,0,0,1,0,0,0,0,0,0,0,0,0,0,0,0,0,0,0,0,0,0,0,0,0,0,0,0,0,0,0,0,0,0,0,0],"split_type":[0,0,0,0,0,0,0,0,0,0,0,0,0,0,0,0,0,0,0,0,0,0,0,0,0,0,0,0,0,0,0,0,0,0,0,0,0,0,0,0,0,0,0,0,0,0,0,0,0,0,0,0,0,0,0,0,0,0,0,0,0,0,0,0,0,0,0,0,0,0,0,0,0,0,0,0,0,0,0,0,0,0,0,0,0],"sum_hessian":[2.369422E3,1.7475264E3,6.218956E2,6.020433E2,1.1454832E3,9.994322E1,5.219524E2,3.883558E2,2.1368748E2,1.6830078E2,9.771824E2,4.8767628E1,5.117559E1,4.4183514E2,8.011727E1,3.0634924E2,8.200655E1,1.2336735E2,9.032014E1,9.34256E1,7.487519E1,2.0315363E2,7.7402875E2,3.393847E1,1.4829159E1,3.375016E1,1.742543E1,2.7213223E2,1.6970291E2,1.9894306E1,6.0222965E1,3.4872704E1,5.5447433E1,1.6205069E1,5.8670124E1,1.0874402E2,9.4409615E1,4.2311728E2,3.5091147E2,3.2349743E1,1.5887253E0,2.8580423E1,5.169738E0,1.616962E1,1.2558093E0,1.0581852E2,1.663137E2,1.492776E2,2.042532E1,1.33841305E1,6.510176E0,5.162923E1,8.593737E0,2.6331459E1,8.5412445E0,3.866103E1,1.6786402E1,4.1155E0,1.2089568E1,5.1909687E1,6.760437E0,3.822726E0,1.0492129E2,3.5564003E1,5.884561E1,3.8431808E2,3.87992E1,3.1904572E2,3.1865751E1,1.4166674E1,1.441375E1,1.4112308E1,2.0573134E0,1.0593186E1,9.5225334E1,1.17838356E2,4.847535E1,9.516616E1,5.411144E1,1.4266229E1,6.15909E0,4.620931E0,1.8892455E0,4.1548953E0,4.438842E0],"tree_param":{"num_deleted":"0","num_feature":"2","num_nodes":"85","size_leaf_vector":"0"}},{"base_weights":[9.208986E-3,-3.819922E-1,1.0870991E0,-1.1172863E0,-7.779648E-2,-6.710776E-1,1.4053211E0,-1.2206033E0,-9.0255237E-1,-7.9958445E-1,5.1416095E-2,-9.95886E-1,-2.7685422E-1,9.097409E-1,1.5836859E0,-1.0166912E0,-7.191989E-1,-1.1023601E0,-6.9659543E-1,-3.0070776E-1,2.049276E-1,-1.0386509E0,-1.6206013E-1,-4.8438922E-1,1.4710937E-1,7.645882E-1,1.249596E0,1.4496672E0,2.2248766E0,-8.9571095E-1,-5.300172E-1,-9.1525626E-1,-5.5535954E-1,-4.1430148E-1,-1.1740803E-1,-4.0209163E-2,4.9839723E-1,3.066465E-1,-4.545752E-1,-5.1022065E-1,1.9433433E-2,2.216966E-1,-3.5558543E-1,8.497102E-1,4.912386E-1,5.2653074E-1,1.6605655E0,1.5340317E0,9.327229E-1,2.2999265E0,1.0647106E0,-9.9836195E-1,-6.641993E-1,-4.9058044E-1,-1.0456451E0,-4.5973033E-1,-1.8123129E-1,-2.7799043E-1,7.801043E-2,2.5915809E-2,-5.2668E-1,5.733826E-1,-2.92182E-1,-5.366197E-1,-2.8523073E-1,9.2753254E-2,7.9801255E-1,6.230488E-1,1.0259972E0,1.2543015E-1,6.433025E-1,1.452646E0,1.6961354E0,1.0506175E0,2.0408282E-1,1.7034537E-1,1.6759837E0],"categories":[],"categories_nodes":[],"categories_segments":[],"categories_sizes":[],"default_left":[true,true,true,true,true,true,true,false,true,true,true,true,true,true,true,false,true,false,true,true,true,false,true,true,true,true,true,true,true,false,false,true,true,true,true,true,true,false,false,true,false,true,false,true,false,true,false,true,true,false,true,false,false,false,false,false,false,false,false,false,false,false,false,false,false,false,false,false,false,false,false,false,false,false,false,false,false],"id":12,"left_children":[1,3,5,7,9,11,13,-1,15,17,19,21,23,25,27,-1,29,-1,31,33,35,-1,37,39,41,43,45,47,49,-1,-1,51,53,55,57,59,61,-1,-1,63,-1,65,-1,67,-1,69,-1,71,73,-1,75,-1,-1,-1,-1,-1,-1,-1,-1,-1,-1,-1,-1,-1,-1,-1,-1,-1,-1,-1,-1,-1,-1,-1,-1,-1,-1],"loss_changes":[1.00987866E3,3.9295486E2,3.5775317E2,1.0305176E1,1.1606709E2,1.2326027E1,4.6320923E1,0E0,2.8444672E0,5.124153E0,5.714945E1,1.7420006E0,4.1047745E0,6.214882E0,3.080133E1,0E0,1.8283806E0,0E0,3.9298935E0,6.6359596E0,5.2972702E1,0E0,6.6017556E-1,4.134879E-1,6.724664E-1,2.0124092E0,1.1583771E1,1.2978027E1,3.348938E0,0E0,0E0,4.8137665E-1,2.3409061E0,2.011135E0,3.9200513E0,1.2944617E1,2.0031769E1,0E0,0E0,2.235651E-2,0E0,9.962886E-1,0E0,2.487812E0,0E0,6.995001E-1,0E0,1.2629395E0,3.9866714E0,0E0,2.9442253E0,0E0,0E0,0E0,0E0,0E0,0E0,0E0,0E0,0E0,0E0,0E0,0E0,0E0,0E0,0E0,0E0,0E0,0E0,0E0,0E0,0E0,0E0,0E0,0E0,0E0,0E0],"parents":[2147483647,0,0,1,1,2,2,3,3,4,4,5,5,6,6,8,8,9,9,10,10,11,11,12,12,13,13,14,14,16,16,18,18,19,19,20,20,22,22,23,23,24,24,25,25,26,26,27,27,28,28,31,31,32,32,33,33,34,34,35,35,36,36,39,39,41,41,43,43,45,45,47,47,48,48,50,50],"right_children":[2,4,6,8,10,12,14,-1,16,18,20,22,24,26,28,-1,30,-1,32,34,36,-1,38,40,42,44,46,48,50,-1,-1,52,54,56,58,60,62,-1,-1,64,-1,66,-1,68,-1,70,-1,72,74,-1,76,-1,-1,-1,-1,-1,-1,-1,-1,-1,-1,-1,-1,-1,-1,-1,-1,-1,-1,-1,-1,-1,-1,-1,-1,-1,-1],"split_conditions":[1.25E1,2.85E1,2.85E1,2.45E1,8.5E0,2.55E1,3.65E1,-1.2206033E-2,9.5E0,3.65E1,3.65E1,1.35E1,2.75E1,1.35E1,1.45E1,-1.0166911E-2,2.65E1,-1.1023601E-2,4.5E0,3.35E1,9.5E0,-1.0386509E-2,2.45E1,1.45E1,1.45E1,3.45E1,3.25E1,5.75E1,6.75E1,-8.957109E-3,-5.3001717E-3,6.05E1,6.65E1,1.05E1,9.5E0,6.15E1,6.25E1,3.0664648E-3,-4.545752E-3,1.35E1,1.9433432E-4,1.35E1,-3.555854E-3,3.15E1,4.9123857E-3,2.95E1,1.6605655E-2,1.35E1,7.15E1,2.2999264E-2,1.55E1,-9.98362E-3,-6.641993E-3,-4.905804E-3,-1.0456451E-2,-4.597303E-3,-1.8123129E-3,-2.7799043E-3,7.801043E-4,2.5915809E-4,-5.2667996E-3,5.733826E-3,-2.92182E-3,-5.3661973E-3,-2.8523072E-3,9.275325E-4,7.980125E-3,6.2304875E-3,1.0259971E-2,1.2543015E-3,6.433025E-3,1.4526459E-2,1.6961353E-2,1.05061745E-2,2.040828E-3,1.7034536E-3,1.6759837E-2],"split_indices":[1,0,0,0,1,0,0,0,1,0,0,1,0,1,1,0,0,0,1,0,1,0,0,1,1,0,0,0,0,0,0,0,0,1,1,0,0,0,0,1,0,1,0,0,0,0,0,1,0,0,1,0,0,0,0,0,0,0,0,0,0,0,0,0,0,0,0,0,0,0,0,0,0,0,0,0,0],"split_type":[0,0,0,0,0,0,0,0,0,0,0,0,0,0,0,0,0,0,0,0,0,0,0,0,0,0,0,0,0,0,0,0,0,0,0,0,0,0,0,0,0,0,0,0,0,0,0,0,0,0,0,0,0,0,0,0,0,0,0,0,0,0,0,0,0,0,0,0,0,0,0,0,0,0,0,0,0],"sum_hessian":[2.3929546E3,1.7562136E3,6.367411E2,5.131551E2,1.2430585E3,9.741492E1,5.393262E2,3.432971E2,1.69858E2,1.8795337E2,1.0551051E3,5.2572884E1,4.4842033E1,1.4435136E2,3.949748E2,1.01887405E2,6.79706E1,4.5242393E1,1.4271097E2,3.2004007E2,7.35065E2,4.9774433E1,2.7984495E0,3.000951E1,1.4832524E1,1.0342716E2,4.0924206E1,3.2938846E2,6.558634E1,3.323071E1,3.473989E1,5.3854034E1,8.885694E1,1.968122E2,1.2322787E2,4.0098398E2,3.3408105E2,1.0567976E0,1.7416518E0,2.8533855E1,1.4756546E0,1.3402862E1,1.4296627E0,7.725969E1,2.6167469E1,1.5657459E1,2.5266747E1,2.814833E2,4.7905148E1,6.0678688E1,4.9076514E0,3.8224274E1,1.5629758E1,8.025397E1,8.602971E0,1.6389429E2,3.2917923E1,6.741115E1,5.5816715E1,3.538347E2,4.7149284E1,3.0538995E2,2.8691101E1,2.4297806E1,4.2360497E0,1.1901087E1,1.5017747E0,3.5784264E1,4.1475426E1,3.9981878E0,1.1659272E1,1.9402992E2,8.7453384E1,4.085318E1,7.0519643E0,2.5115817E0,2.39607E0],"tree_param":{"num_deleted":"0","num_feature":"2","num_nodes":"77","size_leaf_vector":"0"}},{"base_weights":[-1.18273655E-2,-3.9904538E-1,1.0489296E0,-9.276317E-1,-2.4629723E-2,-8.4782916E-1,1.343465E0,-1.1876104E0,-6.393017E-1,-2.816915E-1,3.8077393E-1,-8.8734764E-1,8.3415526E-1,7.4245894E-1,1.48079E0,-1.2315472E0,-1.0081512E0,-1.1176133E0,-5.6336766E-1,-7.22336E-1,-1.2081607E-1,1.1001116E-1,5.247404E-1,-1.0835489E0,-7.0924157E-1,5.8795255E-1,9.945924E-1,1.2505312E0,1.7931335E0,-7.2626084E-1,-1.23776E0,-1.0431297E0,-6.809214E-1,-7.127612E-1,-4.7607213E-1,-6.79377E-1,-1.0089244E0,-8.772583E-2,-9.7783786E-1,3.0617347E-2,1.4081949E-1,5.676277E-1,8.41249E-2,-1.1292999E0,-2.272176E-2,6.4646804E-1,-1.5878031E-3,8.827399E-1,1.7334534E0,1.3019184E0,-7.4383505E-2,1.5998845E0,2.097227E0,-1.0324296E0,-2.795608E-1,-8.497783E-1,-5.4978126E-1,-5.232476E-1,-2.100871E-1,-9.661365E-1,-6.213311E-1,-2.8903797E-1,1.2583202E-1,1.89898E-1,-3.039128E-1,2.762962E-2,3.706535E-1,4.6787098E-1,6.7430335E-1,1.5312299E-1,-4.8758182E-1,3.863717E-1,7.189611E-1,-3.5389057E-1,1.5207373E-1,1.1974647E0,1.4384277E0,2.512416E-1,-3.297453E-1,1.6573561E0,7.069071E-1,2.1720285E0,9.765817E-1],"categories":[],"categories_nodes":[],"categories_segments":[],"categories_sizes":[],"default_left":[true,true,true,true,true,true,true,true,true,true,true,true,false,true,true,true,true,false,true,true,true,true,true,true,false,true,true,true,true,false,false,false,true,true,true,true,false,true,false,true,true,true,true,false,false,true,true,false,false,true,true,true,true,false,false,false,false,false,false,false,false,false,false,false,false,false,false,false,false,false,false,false,false,false,false,false,false,false,false,false,false,false,false],"id":13,"left_children":[1,3,5,7,9,11,13,15,17,19,21,23,-1,25,27,29,31,-1,33,35,37,39,41,43,-1,45,47,49,51,-1,-1,-1,53,55,57,59,-1,61,-1,63,65,67,69,-1,-1,71,73,-1,-1,75,77,79,81,-1,-1,-1,-1,-1,-1,-1,-1,-1,-1,-1,-1,-1,-1,-1,-1,-1,-1,-1,-1,-1,-1,-1,-1,-1,-1,-1,-1,-1,-1],"loss_changes":[9.6567163E2,3.4083804E2,3.5237927E2,5.2769043E1,1.052797E2,6.39806E0,4.384784E1,1.710083E0,1.1746521E1,4.3733837E1,1.5224007E1,2.1546326E0,0E0,3.4392967E0,2.9567688E1,3.0914307E-2,1.955185E-1,0E0,3.5220108E0,1.3475189E0,1.2790348E1,3.3165264E-1,4.783783E0,1.8141785E0,0E0,2.294899E0,1.5939636E0,1.765625E1,7.5392456E0,0E0,0E0,0E0,1.1958652E0,1.9264755E0,2.2728539E0,1.8409424E0,0E0,1.887791E1,0E0,2.1718423E0,2.5568163E0,2.1621628E0,1.0155865E0,0E0,0E0,8.6281586E-1,4.328512E-1,0E0,0E0,1.8184814E0,9.622266E-1,4.8622437E0,3.647583E0,0E0,0E0,0E0,0E0,0E0,0E0,0E0,0E0,0E0,0E0,0E0,0E0,0E0,0E0,0E0,0E0,0E0,0E0,0E0,0E0,0E0,0E0,0E0,0E0,0E0,0E0,0E0,0E0,0E0,0E0],"parents":[2147483647,0,0,1,1,2,2,3,3,4,4,5,5,6,6,7,7,8,8,9,9,10,10,11,11,13,13,14,14,15,15,16,16,18,18,19,19,20,20,21,21,22,22,23,23,25,25,26,26,27,27,28,28,32,32,33,33,34,34,35,35,37,37,39,39,40,40,41,41,42,42,45,45,46,46,49,49,50,50,51,51,52,52],"right_children":[2,4,6,8,10,12,14,16,18,20,22,24,-1,26,28,30,32,-1,34,36,38,40,42,44,-1,46,48,50,52,-1,-1,-1,54,56,58,60,-1,62,-1,64,66,68,70,-1,-1,72,74,-1,-1,76,78,80,82,-1,-1,-1,-1,-1,-1,-1,-1,-1,-1,-1,-1,-1,-1,-1,-1,-1,-1,-1,-1,-1,-1,-1,-1,-1,-1,-1,-1,-1,-1],"split_conditions":[1.25E1,3.35E1,2.75E1,2.55E1,9.5E0,1.45E1,3.35E1,2.35E1,8.5E0,8.5E0,4.05E1,2.45E1,8.341553E-3,3.15E1,1.35E1,4.5E0,1.05E1,-1.1176133E-2,2.85E1,6.55E1,6.85E1,3.55E1,6.35E1,1.35E1,-7.0924154E-3,1.45E1,1.45E1,6.65E1,1.45E1,-7.262608E-3,-1.2377599E-2,-1.0431296E-2,2.45E1,9.5E0,1.05E1,3.75E1,-1.0089244E-2,4.55E1,-9.7783785E-3,1.05E1,1.05E1,4.85E1,7.95E1,-1.1292999E-2,-2.2721759E-4,2.85E1,2.85E1,8.8273985E-3,1.7334534E-2,4.55E1,7.15E1,6.15E1,6.75E1,-1.0324296E-2,-2.795608E-3,-8.497783E-3,-5.4978123E-3,-5.2324757E-3,-2.100871E-3,-9.661365E-3,-6.2133106E-3,-2.8903796E-3,1.2583202E-3,1.89898E-3,-3.039128E-3,2.762962E-4,3.706535E-3,4.67871E-3,6.7430334E-3,1.5312299E-3,-4.8758183E-3,3.863717E-3,7.189611E-3,-3.5389056E-3,1.5207372E-3,1.1974647E-2,1.4384276E-2,2.5124159E-3,-3.2974528E-3,1.6573561E-2,7.069071E-3,2.1720285E-2,9.765817E-3],"split_indices":[1,0,0,0,1,1,0,0,1,1,0,0,0,0,1,1,1,0,0,0,0,0,0,1,0,1,1,0,1,0,0,0,0,1,1,0,0,0,0,1,1,0,0,0,0,0,0,0,0,0,0,0,0,0,0,0,0,0,0,0,0,0,0,0,0,0,0,0,0,0,0,0,0,0,0,0,0,0,0,0,0,0,0],"split_type":[0,0,0,0,0,0,0,0,0,0,0,0,0,0,0,0,0,0,0,0,0,0,0,0,0,0,0,0,0,0,0,0,0,0,0,0,0,0,0,0,0,0,0,0,0,0,0,0,0,0,0,0,0,0,0,0,0,0,0,0,0,0,0,0,0,0,0,0,0,0,0,0,0,0,0,0,0,0,0,0,0,0,0],"sum_hessian":[2.3490103E3,1.7212941E3,6.2771625E2,7.130951E2,1.008199E3,8.4119865E1,5.435964E2,3.7334335E2,3.397517E2,6.171662E2,3.9103278E2,8.265042E1,1.4694442E0,1.0229718E2,4.4129922E2,2.952058E2,7.813755E1,4.4667984E1,2.9508374E2,1.641266E2,4.530396E2,1.36353E2,2.546798E2,3.6908432E1,4.574199E1,6.5494385E1,3.680279E1,2.569098E2,1.8438943E2,5.0176625E0,2.9018814E2,6.8615326E1,9.522225E0,1.0619008E2,1.8889366E2,1.4566264E2,1.846395E1,4.3725906E2,1.5780528E1,3.8676506E1,9.767648E1,2.3182666E2,2.2853128E1,3.5320595E1,1.587838E0,5.9492798E1,6.0015893E0,3.3870094E1,2.932698E0,2.4733423E2,9.575556E0,1.16570786E2,6.781865E1,4.238158E0,5.284067E0,5.540074E1,5.0789333E1,1.5961664E2,2.9277029E1,2.18878E1,1.2377484E2,2.249009E2,2.1235817E2,2.6494133E1,1.2182373E1,6.61961E1,3.1480387E1,1.2258156E2,1.092451E2,2.1045372E1,1.8077568E0,1.434706E1,4.5145737E1,1.4269472E0,4.574642E0,1.4565477E2,1.0167946E2,4.2158456E0,5.3597097E0,1.0871776E2,7.853028E0,6.2695625E1,5.1230264E0],"tree_param":{"num_deleted":"0","num_feature":"2","num_nodes":"83","size_leaf_vector":"0"}},{"base_weights":[1.8436035E-2,-3.7535927E-1,1.0793372E0,-9.6524423E-1,-1.4586322E-2,-6.492178E-1,1.4069222E0,-1.1668329E0,-6.4167935E-1,-7.378427E-1,1.2144889E-1,-8.0958897E-1,9.3043685E-2,1.2661133E0,2.1780705E0,-1.2375556E0,-9.8389035E-1,-1.0604976E0,-5.743718E-1,-8.5590506E-1,-6.053715E-1,-8.7418914E-2,3.627986E-1,-9.6343446E-1,-5.484073E-1,2.0461647E-1,-7.647039E-1,8.143097E-1,1.4346414E0,1.6259791E-1,2.258202E0,-1.0011287E0,-6.2936765E-1,-6.285312E-1,-2.8213152E-1,-1.0322244E0,-5.1680243E-1,-4.3356124E-1,-7.5083845E-3,-7.22334E-2,4.2949274E-1,-6.0963935E-1,5.5656266E-1,1.5402691E-1,3.9666414E-1,4.835847E-1,9.762871E-1,1.4746498E0,9.444103E-2,7.8164643E-1,-4.7390413E-1,2.334558E0,9.712098E-1,-7.566226E-1,-5.6109047E-1,-5.148764E-1,-1.7917559E-1,-4.3169615E-1,-1.0351355E0,-4.904696E-1,-2.5295272E-1,2.8859692E-2,-8.098105E-1,1.2894417E-2,-5.625385E-1,4.7515416E-1,-4.9734548E-2,5.832789E-1,2.7732503E-1,8.583736E-1,1.3539268E0,1.5234498E0,1.105939E0,5.388452E-1,-2.45961E-1,1.0899489E0,2.3754725E0,2.6355672E-1,1.5314057E0],"categories":[],"categories_nodes":[],"categories_segments":[],"categories_sizes":[],"default_left":[true,true,true,true,true,true,true,true,true,true,true,true,true,true,true,false,true,false,true,false,true,true,true,false,true,true,false,true,true,true,true,false,false,true,true,false,true,true,true,true,true,false,false,false,false,true,true,true,true,false,false,true,true,false,false,false,false,false,false,false,false,false,false,false,false,false,false,false,false,false,false,false,false,false,false,false,false,false,false],"id":14,"left_children":[1,3,5,7,9,11,13,15,17,19,21,23,25,27,29,-1,31,-1,33,-1,35,37,39,-1,41,43,-1,45,47,49,51,-1,-1,53,55,-1,57,59,61,63,65,-1,-1,-1,-1,67,69,71,73,-1,-1,75,77,-1,-1,-1,-1,-1,-1,-1,-1,-1,-1,-1,-1,-1,-1,-1,-1,-1,-1,-1,-1,-1,-1,-1,-1,-1,-1],"loss_changes":[9.9276666E2,3.6880573E2,3.651671E2,4.2149597E1,1.05992905E2,1.2356541E1,5.5997925E1,4.0093384E0,6.5702667E0,2.149147E0,4.574551E1,2.884819E0,1.9965563E0,3.385266E1,1.2901855E1,0E0,8.808899E-2,0E0,3.3300705E0,0E0,2.6340828E0,1.3465621E1,1.2243034E1,0E0,2.6268015E0,1.118713E-1,0E0,6.3456116E0,1.7752197E1,2.0329027E0,5.490082E0,0E0,0E0,1.1834488E0,7.8145814E-1,0E0,2.7023735E0,8.1445503E-1,1.1596158E1,2.3782537E0,8.012695E0,0E0,0E0,0E0,0E0,7.393322E-1,2.5981293E0,4.143799E0,1.7573559E0,0E0,0E0,1.1693115E0,2.0278645E0,0E0,0E0,0E0,0E0,0E0,0E0,0E0,0E0,0E0,0E0,0E0,0E0,0E0,0E0,0E0,0E0,0E0,0E0,0E0,0E0,0E0,0E0,0E0,0E0,0E0,0E0],"parents":[2147483647,0,0,1,1,2,2,3,3,4,4,5,5,6,6,7,7,8,8,9,9,10,10,11,11,12,12,13,13,14,14,16,16,18,18,20,20,21,21,22,22,24,24,25,25,27,27,28,28,29,29,30,30,33,33,34,34,36,36,37,37,38,38,39,39,40,40,45,45,46,46,47,47,48,48,51,51,52,52],"right_children":[2,4,6,8,10,12,14,16,18,20,22,24,26,28,30,-1,32,-1,34,-1,36,38,40,-1,42,44,-1,46,48,50,52,-1,-1,54,56,-1,58,60,62,64,66,-1,-1,-1,-1,68,70,72,74,-1,-1,76,78,-1,-1,-1,-1,-1,-1,-1,-1,-1,-1,-1,-1,-1,-1,-1,-1,-1,-1,-1,-1,-1,-1,-1,-1,-1,-1],"split_conditions":[1.25E1,3.25E1,2.85E1,2.65E1,8.5E0,2.75E1,1.45E1,2.35E1,8.5E0,5.5E0,9.5E0,2.55E1,1.45E1,3.65E1,3.05E1,-1.2375556E-2,1.15E1,-1.0604976E-2,1.05E1,-8.55905E-3,3.65E1,3.65E1,3.55E1,-9.634344E-3,1.45E1,1.35E1,-7.647039E-3,3.15E1,6.85E1,2.95E1,6.75E1,-1.00112865E-2,-6.2936763E-3,2.85E1,2.85E1,-1.0322244E-2,6.55E1,3.55E1,6.85E1,1.15E1,6.15E1,-6.0963933E-3,5.5656265E-3,1.5402691E-3,3.966641E-3,3.05E1,1.35E1,5.75E1,7.15E1,7.816464E-3,-4.7390414E-3,3.25E1,1.55E1,-7.566226E-3,-5.6109047E-3,-5.1487642E-3,-1.7917558E-3,-4.3169614E-3,-1.0351355E-2,-4.904696E-3,-2.5295273E-3,2.885969E-4,-8.098105E-3,1.2894417E-4,-5.625385E-3,4.7515417E-3,-4.9734546E-4,5.832789E-3,2.7732502E-3,8.583736E-3,1.3539268E-2,1.5234497E-2,1.105939E-2,5.3884517E-3,-2.4596099E-3,1.0899489E-2,2.3754725E-2,2.6355672E-3,1.5314057E-2],"split_indices":[1,0,0,0,1,0,1,0,1,1,1,0,1,0,0,0,1,0,1,0,0,0,0,0,1,1,0,0,0,0,0,0,0,0,0,0,0,0,0,1,0,0,0,0,0,0,1,0,0,0,0,0,1,0,0,0,0,0,0,0,0,0,0,0,0,0,0,0,0,0,0,0,0,0,0,0,0,0,0],"split_type":[0,0,0,0,0,0,0,0,0,0,0,0,0,0,0,0,0,0,0,0,0,0,0,0,0,0,0,0,0,0,0,0,0,0,0,0,0,0,0,0,0,0,0,0,0,0,0,0,0,0,0,0,0,0,0,0,0,0,0,0,0,0,0,0,0,0,0,0,0,0,0,0,0,0,0,0,0,0,0],"sum_hessian":[2.3743325E3,1.7320574E3,6.422752E2,6.566768E2,1.0753806E3,1.021711E2,5.4010406E2,4.0299503E2,2.5368178E2,1.6954411E2,9.058365E2,8.394372E1,1.822738E1,4.589443E2,8.115977E1,2.8648126E2,1.16513756E2,3.308096E1,2.2060081E2,8.6759926E1,8.278418E1,4.8593692E2,4.198996E2,5.1134747E1,3.280897E1,1.6803137E1,1.4242437E0,1.26267685E2,3.3267664E2,3.2192106E0,7.794056E1,1.0937178E2,7.1419744E0,1.8513916E2,3.546166E1,1.2394623E1,7.038956E1,9.031233E1,3.956246E2,5.580593E1,3.6409366E2,3.1511059E1,1.2979125E0,1.4726009E1,2.0771282E0,4.2821136E1,8.344655E1,3.2293585E2,9.740766E0,1.5163784E0,1.7028322E0,7.280704E1,5.1335206E0,6.0331486E1,1.2480768E2,9.648673E0,2.5812983E1,6.2036503E1,8.353058E0,6.736916E1,2.2943163E1,3.7939096E2,1.6233631E1,4.8379826E1,7.4261074E0,3.3242795E2,3.16657E1,2.7635714E1,1.5185425E1,6.608521E1,1.7361334E1,2.8242432E2,4.0511547E1,3.9721055E0,5.76866E0,3.1969295E0,6.961011E1,2.9179578E0,2.2155628E0],"tree_param":{"num_deleted":"0","num_feature":"2","num_nodes":"79","size_leaf_vector":"0"}},{"base_weights":[-5.301035E-3,-4.0463093E-1,1.0494684E0,-1.1323245E0,-1.06024094E-1,-5.777212E-1,1.4241319E0,-1.180645E0,-8.9412695E-1,-8.180734E-1,2.1965623E-2,-8.8063073E-1,2.5827938E-1,1.2944943E0,2.1081965E0,-1.2519126E0,-1.1062012E0,-1.0181338E0,-7.02229E-1,-1.0255797E0,-7.602169E-1,-3.8294116E-1,1.6579145E-1,-1.1208833E0,-7.1346265E-1,3.3246702E-1,-3.199067E-1,9.089675E-1,1.4207277E0,-1.8138182E-1,2.1637518E0,-1.082256E0,-4.8747903E-1,-8.6936855E-1,-6.121462E-1,-5.1472306E-1,-2.2990768E-1,-1.235909E-3,3.674513E-1,-7.195703E-1,-2.135525E-1,2.686266E-1,5.756995E-1,-2.825055E-2,-4.809189E-1,7.9724056E-1,1.3433882E0,1.4987538E0,5.322189E-1,1.6636851E0,2.2570183E0,2.12129E-1,-7.3636246E-1,-3.046942E-1,-9.4635767E-1,-8.948752E-1,-5.314486E-1,-6.784936E-1,-4.8179454E-1,-3.1182456E-1,-5.295071E-2,5.5288404E-2,-4.4724715E-1,1.6465959E-1,4.821107E-1,3.747582E-1,1.3666981E-1,8.924023E-1,5.202715E-1,1.3892717E0,1.6057829E0,6.991635E-1,-5.137393E-2,2.019931E0,7.967679E-1,2.4410882E0,1.7543966E0],"categories":[],"categories_nodes":[],"categories_segments":[],"categories_sizes":[],"default_left":[true,true,true,true,true,true,true,true,true,true,true,true,true,true,true,false,false,false,false,true,true,true,true,false,true,true,true,true,true,false,true,false,true,true,true,true,true,true,true,false,false,true,false,false,false,true,false,true,true,true,true,false,false,false,false,false,false,false,false,false,false,false,false,false,false,false,false,false,false,false,false,false,false,false,false,false,false],"id":15,"left_children":[1,3,5,7,9,11,13,15,17,19,21,23,25,27,29,-1,-1,-1,-1,31,33,35,37,-1,39,41,43,45,47,-1,49,-1,51,53,55,57,59,61,63,-1,-1,65,-1,-1,-1,67,-1,69,71,73,75,-1,-1,-1,-1,-1,-1,-1,-1,-1,-1,-1,-1,-1,-1,-1,-1,-1,-1,-1,-1,-1,-1,-1,-1,-1,-1],"loss_changes":[1.0002244E3,3.7417786E2,3.984043E2,4.71167E0,1.1142702E2,3.1315926E1,4.4305542E1,8.086548E-1,1.3940506E0,1.4567642E0,6.046472E1,2.8286438E0,1.5400879E0,2.053424E1,1.09383545E1,0E0,0E0,0E0,0E0,6.23703E-1,1.8845825E0,5.3701744E0,2.5802317E1,0E0,1.7393112E-2,3.1296492E-1,1.8884385E-1,4.432991E0,2.2501343E1,0E0,2.3834229E-2,0E0,1.0993803E0,3.3503609E0,1.0492649E0,4.573288E-1,1.8350339E0,1.0612834E1,7.9899483E0,0E0,0E0,3.090992E-1,0E0,0E0,0E0,1.9779472E0,0E0,1.3827515E0,2.8302536E0,3.4986916E0,1.7756348E0,0E0,0E0,0E0,0E0,0E0,0E0,0E0,0E0,0E0,0E0,0E0,0E0,0E0,0E0,0E0,0E0,0E0,0E0,0E0,0E0,0E0,0E0,0E0,0E0,0E0,0E0],"parents":[2147483647,0,0,1,1,2,2,3,3,4,4,5,5,6,6,7,7,8,8,9,9,10,10,11,11,12,12,13,13,14,14,19,19,20,20,21,21,22,22,24,24,25,25,26,26,27,27,28,28,30,30,32,32,33,33,34,34,35,35,36,36,37,37,38,38,41,41,45,45,47,47,48,48,49,49,50,50],"right_children":[2,4,6,8,10,12,14,16,18,20,22,24,26,28,30,-1,-1,-1,-1,32,34,36,38,-1,40,42,44,46,48,-1,50,-1,52,54,56,58,60,62,64,-1,-1,66,-1,-1,-1,68,-1,70,72,74,76,-1,-1,-1,-1,-1,-1,-1,-1,-1,-1,-1,-1,-1,-1,-1,-1,-1,-1,-1,-1,-1,-1,-1,-1,-1,-1],"split_conditions":[1.25E1,2.85E1,2.95E1,2.65E1,8.5E0,2.75E1,1.45E1,2.15E1,9.5E0,3.55E1,3.55E1,2.45E1,1.45E1,3.65E1,3.05E1,-1.2519126E-2,-1.1062011E-2,-1.0181338E-2,-7.02229E-3,7.5E0,5.5E0,9.5E0,9.5E0,-1.1208833E-2,1.45E1,1.35E1,2.85E1,1.35E1,6.25E1,-1.8138181E-3,3.75E1,-1.082256E-2,3.15E1,4.05E1,4.05E1,2.95E1,1.05E1,6.15E1,4.25E1,-7.1957028E-3,-2.135525E-3,2.85E1,5.756995E-3,-2.825055E-4,-4.809189E-3,3.45E1,1.3433882E-2,4.55E1,7.15E1,1.55E1,5.45E1,2.12129E-3,-7.3636244E-3,-3.046942E-3,-9.463577E-3,-8.948752E-3,-5.314486E-3,-6.784936E-3,-4.8179454E-3,-3.1182456E-3,-5.295071E-4,5.52884E-4,-4.4724713E-3,1.6465959E-3,4.821107E-3,3.747582E-3,1.3666981E-3,8.924022E-3,5.202715E-3,1.3892717E-2,1.6057828E-2,6.9916346E-3,-5.137393E-4,2.019931E-2,7.967679E-3,2.4410881E-2,1.7543966E-2],"split_indices":[1,0,0,0,1,0,1,0,1,0,0,0,1,0,0,0,0,0,0,1,1,1,1,0,1,1,0,1,0,0,0,0,0,0,0,0,1,0,0,0,0,0,0,0,0,0,0,0,0,1,0,0,0,0,0,0,0,0,0,0,0,0,0,0,0,0,0,0,0,0,0,0,0,0,0,0,0],"split_type":[0,0,0,0,0,0,0,0,0,0,0,0,0,0,0,0,0,0,0,0,0,0,0,0,0,0,0,0,0,0,0,0,0,0,0,0,0,0,0,0,0,0,0,0,0,0,0,0,0,0,0,0,0,0,0,0,0,0,0,0,0,0,0,0,0,0,0,0,0,0,0,0,0,0,0,0,0],"sum_hessian":[2.3726882E3,1.7215393E3,6.5114886E2,5.0007748E2,1.2214619E3,1.21766495E2,5.293824E2,4.1245135E2,8.762615E1,1.8528242E2,1.0361794E3,8.934176E1,3.242474E1,4.4747363E2,8.190876E1,2.0264006E2,2.0981128E2,5.0613483E1,3.7012665E1,3.6749954E1,1.4853247E2,2.7115256E2,7.6502686E2,3.4316803E1,5.5024952E1,2.9114069E1,3.3106725E0,1.1239908E2,3.3507455E2,1.886739E0,8.0022026E1,3.2333164E1,4.416791E0,8.269894E1,6.5833534E1,1.4442241E2,1.2673015E2,4.189883E2,3.4603854E2,5.3926704E1,1.0982463E0,2.4728153E1,4.385915E0,1.5956968E0,1.7149756E0,9.166047E1,2.0738613E1,3.0739343E2,2.7681118E1,1.5539876E1,6.448215E1,1.197713E0,3.219078E0,1.0517357E1,7.218158E1,1.2377816E1,5.3455715E1,2.0895142E1,1.23527275E2,8.6107254E1,4.06229E1,3.7263876E2,4.6349567E1,1.2586471E2,2.2017384E2,1.2685398E1,1.2042756E1,6.656713E1,2.5093334E1,1.5886642E2,1.4852701E2,2.1369928E1,6.3111897E0,1.0071239E1,5.468636E0,4.4374603E1,2.0107546E1],"tree_param":{"num_deleted":"0","num_feature":"2","num_nodes":"77","size_leaf_vector":"0"}},{"base_weights":[-1.4889312E-2,-4.003711E-1,1.008823E0,-1.0868518E0,-1.2103397E-1,-2.6198295E-1,1.3867067E0,-1.1964893E0,-8.6698663E-1,-7.920633E-1,2.7807523E-3,-7.576854E-1,3.1687525E-1,1.2428546E0,2.1157255E0,-9.8529E-1,-6.921188E-1,-1.0564573E0,-7.196591E-1,-1.943245E-1,2.2829342E-1,-1.1439351E0,-4.601663E-1,2.34799E-1,5.597163E-1,1.2685909E0,1.2038506E-1,2.168952E0,1.199237E0,-7.764859E-1,-5.8718127E-1,-8.810691E-1,-5.289588E-1,-4.9842298E-1,-7.1131855E-2,-1.5164982E-1,3.570923E-1,9.353234E-2,2.785768E-1,3.481441E-1,8.9548737E-1,1.1673043E0,1.4957062E0,-3.8080135E-1,3.209891E-1,3.9109123E-1,1.6160451E0,-5.004671E-1,-7.3371696E-1,-3.5021743E-1,-6.713671E-1,-5.695187E-1,-3.1450287E-1,-1.7507326E-2,-7.025992E-1,-1.8408585E-1,3.9445248E-2,3.8927925E-1,-2.4508642E-1,4.93555E-1,6.716966E-2,1.0011463E0,1.2976552E0,-8.83618E-2,1.5382625E0,5.763029E-1,-1.4777194E-1,9.230596E-3,6.351158E-1,5.367401E-1,1.9038022E0],"categories":[],"categories_nodes":[],"categories_segments":[],"categories_sizes":[],"default_left":[true,true,true,true,true,true,true,false,true,true,true,true,true,true,true,false,true,false,true,true,true,false,false,true,true,true,true,false,true,false,true,false,true,true,true,true,true,false,false,true,false,true,true,false,true,true,true,false,false,false,false,false,false,false,false,false,false,false,false,false,false,false,false,false,false,false,false,false,false,false,false],"id":16,"left_children":[1,3,5,7,9,11,13,-1,15,17,19,21,23,25,27,-1,29,-1,31,33,35,-1,-1,37,39,41,43,-1,45,-1,47,-1,49,51,53,55,57,-1,-1,59,-1,61,63,-1,65,67,69,-1,-1,-1,-1,-1,-1,-1,-1,-1,-1,-1,-1,-1,-1,-1,-1,-1,-1,-1,-1,-1,-1,-1,-1],"loss_changes":[9.3859344E2,3.311925E2,3.1280487E2,1.1005676E1,1.0212918E2,4.3271603E1,4.998004E1,0E0,2.832138E0,2.9052734E0,4.6215675E1,8.791111E0,1.2615023E0,1.2020996E1,1.3624878E0,0E0,1.8067169E-1,0E0,4.2573853E0,2.074946E1,2.378407E1,0E0,0E0,3.0761814E-1,8.910103E-1,7.7283325E0,1.1829768E0,0E0,1.6236315E0,0E0,9.2123985E-2,0E0,1.6191273E0,1.9103279E0,1.3397896E1,7.725637E-1,7.1204567E0,0E0,0E0,4.5804572E-1,0E0,4.968628E0,8.459412E0,0E0,1.051858E0,3.293965E-1,2.5109577E-1,0E0,0E0,0E0,0E0,0E0,0E0,0E0,0E0,0E0,0E0,0E0,0E0,0E0,0E0,0E0,0E0,0E0,0E0,0E0,0E0,0E0,0E0,0E0,0E0],"parents":[2147483647,0,0,1,1,2,2,3,3,4,4,5,5,6,6,8,8,9,9,10,10,11,11,12,12,13,13,14,14,16,16,18,18,19,19,20,20,23,23,24,24,25,25,26,26,28,28,30,30,32,32,33,33,34,34,35,35,36,36,39,39,41,41,42,42,44,44,45,45,46,46],"right_children":[2,4,6,8,10,12,14,-1,16,18,20,22,24,26,28,-1,30,-1,32,34,36,-1,-1,38,40,42,44,-1,46,-1,48,-1,50,52,54,56,58,-1,-1,60,-1,62,64,-1,66,68,70,-1,-1,-1,-1,-1,-1,-1,-1,-1,-1,-1,-1,-1,-1,-1,-1,-1,-1,-1,-1,-1,-1,-1,-1],"split_conditions":[1.25E1,2.85E1,3.15E1,2.45E1,8.5E0,2.75E1,1.45E1,-1.1964893E-2,9.5E0,3.55E1,9.5E0,2.45E1,1.35E1,6.85E1,6.45E1,-9.852899E-3,2.65E1,-1.0564572E-2,5.5E0,3.65E1,3.55E1,-1.143935E-2,-4.601663E-3,2.85E1,3.05E1,1.35E1,7.05E1,2.168952E-2,1.55E1,-7.764859E-3,1.05E1,-8.810691E-3,4.85E1,3.45E1,6.45E1,3.45E1,6.55E1,9.3532336E-4,2.785768E-3,1.45E1,8.954873E-3,4.15E1,3.25E1,-3.8080134E-3,1.35E1,7.05E1,6.85E1,-5.004671E-3,-7.3371693E-3,-3.5021743E-3,-6.713671E-3,-5.6951866E-3,-3.1450286E-3,-1.7507325E-4,-7.025992E-3,-1.8408584E-3,3.9445248E-4,3.8927924E-3,-2.450864E-3,4.93555E-3,6.7169656E-4,1.00114625E-2,1.2976552E-2,-8.8361796E-4,1.5382624E-2,5.7630287E-3,-1.4777194E-3,9.2305956E-5,6.351158E-3,5.367401E-3,1.9038022E-2],"split_indices":[1,0,0,0,1,0,1,0,1,0,1,0,1,0,0,0,0,0,1,0,0,0,0,0,0,1,0,0,1,0,1,0,0,0,0,0,0,0,0,1,0,0,0,0,1,0,0,0,0,0,0,0,0,0,0,0,0,0,0,0,0,0,0,0,0,0,0,0,0,0,0],"split_type":[0,0,0,0,0,0,0,0,0,0,0,0,0,0,0,0,0,0,0,0,0,0,0,0,0,0,0,0,0,0,0,0,0,0,0,0,0,0,0,0,0,0,0,0,0,0,0,0,0,0,0,0,0,0,0,0,0,0,0,0,0,0,0,0,0,0,0,0,0,0,0],"sum_hessian":[2.3764355E3,1.7268094E3,6.496261E2,4.9859763E2,1.2282118E3,1.4896619E2,5.006599E2,3.2973227E2,1.6886537E2,1.904807E2,1.0377311E3,8.0080605E1,6.8885574E1,4.2040848E2,8.025143E1,9.795881E1,7.0906555E1,3.8027378E1,1.5245332E2,5.538163E2,4.839148E2,3.3606525E1,4.6474083E1,5.2954662E1,1.5930915E1,4.1085803E2,9.550462E0,7.4554955E1,5.6964726E0,3.575828E1,3.5148273E1,8.0606895E1,7.184643E1,1.5879306E2,3.9502325E2,1.224684E2,3.614464E2,1.3270043E1,3.968462E1,1.1022436E1,4.908479E0,2.883861E2,1.2247191E2,2.473194E0,7.077268E0,2.5978413E0,3.0986314E0,2.485523E1,1.0293044E1,3.3393013E1,3.845342E1,1.1301117E2,4.578189E1,3.650507E2,2.9972565E1,1.04728676E2,1.7739723E1,3.4344266E2,1.8003752E1,6.7648726E0,4.2575636E0,1.3059602E2,1.5779008E2,3.1759892E0,1.1929592E2,4.4332514E0,2.6440167E0,1.4174999E0,1.1803414E0,1.2553564E0,1.843275E0],"tree_param":{"num_deleted":"0","num_feature":"2","num_nodes":"71","size_leaf_vector":"0"}},{"base_weights":[-1.2395033E-3,-3.9281496E-1,1.0258698E0,-9.9985206E-1,-4.712832E-2,-6.6317296E-1,1.3372511E0,-1.1879073E0,-7.240637E-1,-2.8475532E-1,3.2458884E-1,-1.0560199E0,-2.4105877E-1,1.124033E0,1.6486411E0,-1.2320807E0,-1.0070024E0,-8.194285E-1,-6.1540704E-2,-7.5747526E-1,-1.3900162E-1,3.8905676E-2,4.749917E-1,-1.149788E0,-7.848531E-1,-1.9994894E-1,-3.8736105E-1,1.1465042E0,2.0284008E-2,1.4755807E0,1.9167254E0,-8.918907E-1,-6.6665757E-1,-5.9861654E-1,2.9103935E-1,-1.0843922E0,-6.8213123E-1,-5.5964774E-1,-4.7849867E-2,-9.439321E-2,3.2732642E-1,5.4876775E-1,-2.6819903E-1,-1.1711869E0,-4.502966E-1,-2.9836413E-1,-1.1143684E-2,-5.524994E-1,-5.880699E-3,8.64432E-1,1.2653308E0,-4.056604E-1,5.199666E-1,1.5156143E0,3.4082937E-1,3.979422E-1,1.9609957E0,-9.4969654E-1,-6.1665124E-1,7.445408E-1,5.889449E-2,-6.2383235E-1,-1.1124135E0,-6.39449E-1,-4.828823E-1,1.9789863E-2,-5.705485E-1,-5.4608665E-2,-3.522858E-1,3.970548E-2,8.29732E-1,3.5571706E-1,6.7801625E-1,-5.4050557E-2,-6.963845E-1,-6.7347187E-1,-1.1028549E-1,9.9273574E-1,-8.308993E-1,6.4412624E-1,9.7174484E-1,1.1594462E0,1.3633736E0,-8.787251E-3,-5.907964E-1,1.3208832E-1,6.567261E-1,8.9488494E-1,1.6007918E0,5.208839E-1,1.0272057E-1,2.032245E0,8.7641656E-1],"categories":[],"categories_nodes":[],"categories_segments":[],"categories_sizes":[],"default_left":[true,true,true,true,true,true,true,true,true,true,true,true,true,true,true,false,false,true,true,true,true,true,true,true,false,true,true,true,true,true,true,true,false,false,true,false,true,true,true,true,true,true,true,false,false,false,false,true,true,true,true,true,true,true,false,true,true,false,false,false,false,false,false,false,false,false,false,false,false,false,false,false,false,false,false,false,false,false,false,false,false,false,false,false,false,false,false,false,false,false,false,false,false],"id":17,"left_children":[1,3,5,7,9,11,13,15,17,19,21,23,25,27,29,-1,-1,31,33,35,37,39,41,43,-1,45,47,49,51,53,55,57,-1,-1,59,-1,61,63,65,67,69,71,73,-1,-1,-1,-1,75,77,79,81,83,85,87,-1,89,91,-1,-1,-1,-1,-1,-1,-1,-1,-1,-1,-1,-1,-1,-1,-1,-1,-1,-1,-1,-1,-1,-1,-1,-1,-1,-1,-1,-1,-1,-1,-1,-1,-1,-1,-1,-1],"loss_changes":[9.596754E2,3.6246307E2,3.4726868E2,3.1645996E1,9.741037E1,1.6856163E1,3.508954E1,1.7247925E0,1.6166245E1,4.6239616E1,1.8462734E1,4.490013E-1,2.2949743E-1,8.246185E0,7.56427E0,0E0,0E0,1.8883362E0,6.4947033E0,3.1592484E0,1.973275E1,5.776081E0,1.5591904E1,3.1570435E-2,0E0,7.753681E-1,6.34783E-1,9.857849E0,1.843495E0,5.8648376E0,4.90329E0,1.7877655E0,0E0,0E0,2.148318E0,0E0,2.6007004E0,2.529068E-1,1.5024933E1,1.0373185E0,6.8248057E0,6.1607895E0,2.3564572E0,0E0,0E0,0E0,0E0,3.0326962E-1,4.178462E0,1.7383041E0,7.8344727E-1,3.403287E-1,1.2373948E-1,5.7261047E0,0E0,7.892674E-2,4.546417E0,0E0,0E0,0E0,0E0,0E0,0E0,0E0,0E0,0E0,0E0,0E0,0E0,0E0,0E0,0E0,0E0,0E0,0E0,0E0,0E0,0E0,0E0,0E0,0E0,0E0,0E0,0E0,0E0,0E0,0E0,0E0,0E0,0E0,0E0,0E0,0E0],"parents":[2147483647,0,0,1,1,2,2,3,3,4,4,5,5,6,6,7,7,8,8,9,9,10,10,11,11,12,12,13,13,14,14,17,17,18,18,19,19,20,20,21,21,22,22,23,23,25,25,26,26,27,27,28,28,29,29,30,30,31,31,34,34,36,36,37,37,38,38,39,39,40,40,41,41,42,42,47,47,48,48,49,49,50,50,51,51,52,52,53,53,55,55,56,56],"right_children":[2,4,6,8,10,12,14,16,18,20,22,24,26,28,30,-1,-1,32,34,36,38,40,42,44,-1,46,48,50,52,54,56,58,-1,-1,60,-1,62,64,66,68,70,72,74,-1,-1,-1,-1,76,78,80,82,84,86,88,-1,90,92,-1,-1,-1,-1,-1,-1,-1,-1,-1,-1,-1,-1,-1,-1,-1,-1,-1,-1,-1,-1,-1,-1,-1,-1,-1,-1,-1,-1,-1,-1,-1,-1,-1,-1,-1,-1],"split_conditions":[1.25E1,3.15E1,2.85E1,2.55E1,9.5E0,2.55E1,1.35E1,2.35E1,1.05E1,7.5E0,3.95E1,2.45E1,1.35E1,6.85E1,1.45E1,-1.2320806E-2,-1.0070023E-2,9.5E0,2.85E1,3.5E0,3.55E1,1.05E1,6.25E1,1.35E1,-7.848531E-3,2.75E1,1.45E1,3.65E1,7.35E1,6.55E1,3.05E1,3.05E1,-6.6665756E-3,-5.9861653E-3,2.95E1,-1.0843921E-2,6.65E1,3.35E1,6.15E1,3.85E1,3.65E1,4.55E1,7.15E1,-1.1711869E-2,-4.502966E-3,-2.9836413E-3,-1.1143684E-4,2.75E1,2.75E1,3.15E1,4.55E1,7.05E1,7.65E1,3.45E1,3.4082937E-3,2.95E1,6.75E1,-9.496965E-3,-6.166512E-3,7.445408E-3,5.889449E-4,-6.238323E-3,-1.1124135E-2,-6.3944897E-3,-4.828823E-3,1.9789863E-4,-5.7054847E-3,-5.4608664E-4,-3.522858E-3,3.970548E-4,8.2973195E-3,3.5571705E-3,6.7801625E-3,-5.4050557E-4,-6.963845E-3,-6.7347186E-3,-1.1028548E-3,9.927358E-3,-8.308993E-3,6.441262E-3,9.717448E-3,1.1594462E-2,1.3633736E-2,-8.787251E-5,-5.907964E-3,1.3208832E-3,6.567261E-3,8.9488495E-3,1.6007917E-2,5.208839E-3,1.0272057E-3,2.032245E-2,8.764165E-3],"split_indices":[1,0,0,0,1,0,1,0,1,1,0,0,1,0,1,0,0,1,0,1,0,1,0,1,0,0,1,0,0,0,0,0,0,0,0,0,0,0,0,0,0,0,0,0,0,0,0,0,0,0,0,0,0,0,0,0,0,0,0,0,0,0,0,0,0,0,0,0,0,0,0,0,0,0,0,0,0,0,0,0,0,0,0,0,0,0,0,0,0,0,0,0,0],"split_type":[0,0,0,0,0,0,0,0,0,0,0,0,0,0,0,0,0,0,0,0,0,0,0,0,0,0,0,0,0,0,0,0,0,0,0,0,0,0,0,0,0,0,0,0,0,0,0,0,0,0,0,0,0,0,0,0,0,0,0,0,0,0,0,0,0,0,0,0,0,0,0,0,0,0,0,0,0,0,0,0,0,0,0,0,0,0,0,0,0,0,0,0,0],"sum_hessian":[2.3841177E3,1.7265173E3,6.576004E2,6.257636E2,1.1007537E3,1.0218465E2,5.554158E2,3.7009497E2,2.5566861E2,6.7163354E2,4.2912012E2,5.214934E1,5.0035305E1,3.324126E2,2.2300314E2,2.9279068E2,7.730428E1,2.2329088E2,3.2377735E1,1.5729265E2,5.1434094E2,1.484345E2,2.8068564E2,3.634222E1,1.5807122E1,4.0907337E1,9.12797E0,3.2574213E2,6.670495E0,1.3947191E2,8.353124E1,1.4817197E2,7.5118904E1,1.2555087E1,1.9822647E1,2.6952703E1,1.3033995E2,9.068928E1,4.2365164E2,1.0197679E2,4.6457703E1,2.5557635E2,2.510928E1,3.460912E1,1.7331011E0,2.6509119E1,1.4398217E1,6.0574617E0,3.070508E0,9.900281E1,2.267393E2,3.7025201E0,2.967975E0,1.3439487E2,5.077034E0,2.6487677E0,8.088248E1,1.20429016E2,2.7742954E1,5.9641976E0,1.385845E1,1.1694492E2,1.3395023E1,4.087152E1,4.9817757E1,3.7596243E2,4.7689217E1,8.93974E1,1.2579397E1,3.0230276E1,1.6227427E1,1.0399602E2,1.5158034E2,1.7488823E1,7.6204567E0,4.345695E0,1.7117668E0,1.2971395E0,1.7733686E0,3.4722446E1,6.4280365E1,1.1517656E2,1.1156275E2,1.5109612E0,2.1915588E0,1.2861186E0,1.6818562E0,1.7605013E1,1.16789856E2,1.330368E0,1.3183997E0,7.507669E1,5.805782E0],"tree_param":{"num_deleted":"0","num_feature":"2","num_nodes":"93","size_leaf_vector":"0"}},{"base_weights":[-7.123268E-3,-3.7551144E-1,9.8344976E-1,-1.0932881E0,-8.657455E-2,-6.4039505E-1,1.2804697E0,-1.2139225E0,-9.2145824E-1,-3.2830775E-1,2.7841756E-1,-8.2753E-1,2.3340116E-1,1.1487062E0,2.011487E0,-9.9846965E-1,-8.093839E-1,-7.7178156E-1,-1.8946151E-1,-1.719349E-1,4.3103525E-1,-1.0637515E0,-6.169878E-1,3.199472E-1,-4.0972155E-1,4.224195E-1,1.2202221E0,5.950683E-1,2.124027E0,-8.927152E-1,-6.768321E-1,-1.0811347E0,-6.902554E-1,-5.4572564E-1,-6.298922E-2,-2.418173E-1,-2.4530327E-2,4.7467703E-1,-1.6275644E-1,-1.0852119E0,-1.63821E-1,-6.660832E-1,-4.7336066E-1,3.3391368E-1,9.1520764E-2,6.2215406E-1,3.151763E-2,1.2361734E0,4.0347466E-1,6.840658E-1,2.0310326E-1,2.2231152E0,4.0012294E-1,-6.1928463E-1,-1.0339963E0,-7.351421E-1,-4.6754807E-1,1.2420427E-2,-5.7430804E-1,-6.436131E-1,-1.7653294E-1,5.4595745E-1,-1.3155635E-1,1.9760211E-1,5.4956514E-1,-3.179309E-1,7.65628E-3,-6.9662374E-1,-3.2593453E-1,7.9298395E-1,4.494278E-1,1.4192358E-1,-5.1938474E-1,1.1130029E0,1.3760087E0,5.251335E-1,-2.5311998E-1,8.534359E-2,8.548557E-1,5.301462E-1,2.5545403E-2],"categories":[],"categories_nodes":[],"categories_segments":[],"categories_sizes":[],"default_left":[true,true,true,true,true,true,true,false,true,true,true,true,true,true,true,false,true,true,true,true,true,true,true,true,false,true,true,true,true,false,false,false,true,true,true,true,true,true,true,false,false,true,false,false,false,true,true,true,true,true,false,false,true,false,false,false,false,false,false,false,false,false,false,false,false,false,false,false,false,false,false,false,false,false,false,false,false,false,false,false,false],"id":18,"left_children":[1,3,5,7,9,11,13,-1,15,17,19,21,23,25,27,-1,29,31,33,35,37,39,41,43,-1,45,47,49,51,-1,-1,-1,53,55,57,59,61,63,65,-1,-1,67,-1,-1,-1,69,71,73,75,77,-1,-1,79,-1,-1,-1,-1,-1,-1,-1,-1,-1,-1,-1,-1,-1,-1,-1,-1,-1,-1,-1,-1,-1,-1,-1,-1,-1,-1,-1,-1],"loss_changes":[8.50513E2,3.5224133E2,3.055526E2,8.986877E0,1.0706019E2,1.6277218E1,4.9168335E1,0E0,9.632721E-1,4.4790756E1,3.3311363E1,3.3837547E0,1.1401982E0,2.312616E1,1.1534485E1,0E0,3.774147E-1,3.6341324E0,2.506772E1,1.262259E0,9.444328E0,5.348816E-1,4.3582916E-3,2.2211313E-2,0E0,3.2854238E0,4.892639E0,1.15680456E-1,1.1749451E1,0E0,0E0,0E0,2.7805252E0,1.8157158E0,1.590415E1,2.074194E0,2.557325E0,6.8834686E0,6.765465E-1,0E0,0E0,9.838772E-2,0E0,0E0,0E0,4.6869183E-1,1.0084543E0,5.451294E0,8.847506E-1,4.921162E-1,0E0,0E0,2.4172467E-1,0E0,0E0,0E0,0E0,0E0,0E0,0E0,0E0,0E0,0E0,0E0,0E0,0E0,0E0,0E0,0E0,0E0,0E0,0E0,0E0,0E0,0E0,0E0,0E0,